tree
version=v4
num_class=1
num_tree_per_iteration=1
label_index=0
max_feature_idx=21
objective=regression
feature_names=Store Dept IsHoliday Temperature Fuel_Price CPI Unemployment promo_intensity_log weekofyear week_sin week_cos month month_sin month_cos sales_lag_1 sales_lag_2 sales_lag_4 sales_mean_4 sales_mean_8 sales_std_8 tier store_profile
feature_infos=-1:27:4:33:12:1:0:11:41:25:16:19:35:10:5:24:2:34:20:15:6:43:32:3:17:9:18:39:8:14:42:13:28:21:7:40:22:44:23:31:30:38:36:37:26:29 -1:61:38:6:72:64:30:10:21:65:75:0:7:55:33:5:62:1:69:68:58:32:70:3:35:2:12:16:71:54:4:77:50:45:42:19:57:51:23:67:24:11:63:73:78:48:66:14:17:47:18:52:27:36:13:74:25:34:15:56:26:22:20:28:46:8:76:49:41:9:29:37:44:40:43:79:39:60:53:59 [0:1] [-2.0600000000000001:100.14] [2.472:4.2110000000000003] [126.06399999999999:223.24967659999999] [4.4199999999999999:14.313000000000001] [0:11.87216728167048] [1:52] [-1:1] [-1:1] [1:12] [-1:1] [-1:1] [0:693099.35999999999] [0:693099.35999999999] [0:693099.35999999999] [0.01:339472.75749999995] [0.45499999997817209:275433.01374999998] [0:202230.14777134752] -1:2:0:1 -1:2:0:1
tree_sizes=5710 5720 5713 5726 5739 5712 5727 5718 5697 5688 5683 5743 5718 5701 5706 5712 5693 5792 5741 5697 5720 5705 5783 5719 5703 5690 5704 5727 5694 5781 5742 5767 5776 5729 5742 5763 5728 5729 5689 5769 5770 5669 5813 5748 5777 5709 5726 5724 5744 5782 5818 5796 5828 5843 5753 5800 5807 5675 5770 5823 5745 5693 5778 5880 5727 5859 5764 5803 5833 5717 5725 5786 5780 5769 5759 5740 5780 5762 5790 5790 5810 5773 5789 5755 5697 5826 5777 5782 5767 5777 5734 5830 5765 5682 5713 5731 5804 5697 5750 5765 5788 5798 5710 5832 5675 5816 5776 5777 5701 5726 5814 5809 5717 5797 5856 5650 5929 5772 5691 5751 5822 5754 5824 5815 5746 5831 5845 5777 5765 5799 5811 5760 5671 5835 5740 5752 5720 5770 5812 5799 5702 5784 5823 5736 5902 5831 5750 5771 5834 5767 5751 5740 5770 5760 5772 5724 5769 5652 5811 5731 5714 5769 5834 5684 5681 5747 5766 5778 5767 5795 5769 5640 5695 5758 5697 5755 5736 5799 5718 5746 5833 5651 5680 5766 5714 5807 5668 5652 5693 5719 5711 5768 5641 5782 5819 5739 5668 5681 5650 5665 5629 5737 5776 5751 5739 5614 5691 5732 5738 5714 5762 5639 5635 5743 5706 5698 5714 5721 5697 5732 5674 5749 5655 5636 5647 5770 5704 5736 5569 5669 5736 5710 5784 5652 5698 5737 5660 5549 5751 5717 5827 5744 5727 5655 5672 5641 5712 5616 5744 5661 5602 5764 5728 5636 5672 5785 5806 5600 5716 5769 5684 5660 5653 5649 5619 5689 5779 5736 5763 5722 5662 5722 5661 5799 5669 5705 5712 5606 5818 5599 5773 5835 5630 5853 5708 5669 5558 5717 5573 5797 5646 5706 5610 5964 5765 5648 5605 5727 5863 5747 5690 5690 5728 5666 5655 5566 5664 5747 5791 5634 5614 5639 5744 5619 5719 5697 5569 5632 5660 5730 5659 5666 5584 5569 5647 5601 5753 5689 5735 5711 5548 5586 5677 5710 5723 5647 5680 5649 5697 5560 5710 5629 5621 5697 5655 5716 5767 5548 5593 5666 5644 5608 5732 5791 5843 5738 5612 5649 5714 5773 5672 5566 5662 5703 5563 5597 5755 5649 5742 5778 5622 5656 5645 5732 5592 5840 5598 5629 5601 5657 5762 5632 5662 5524 5797 5745 5705 5710 5728 5604 5822 5582 5659 5651 5638 5754 5641 5613 5762 5605 5677 5686 5697 5526 5743 5762 5705 5621 5592 5769 5617 5619 5666 5645 5669 5664 5603 5632 5648 5843 5606 5630 5824 5870 5750 5579 5766 5693 5559 5585 5604 5618 5718 5590 5689 5623 5638 5645 5642 5650 5693 5827 5694 5882 5747 5659 5638 5685 5629 5630 5766 5838 5827 5542 5666 5569 5686 5830 5761 5623 5843 5634 5543 5582 5642 5570 5623 5527 5609 5713 5628 5590 5570 5610 5859 5715 5830 5649 5624 5644 5628 5701 5733 5602 5596 5593 5668 5736 5865 5647 5575 5580 5655 5684 5579 5614 5592 5659 5688 5644

Tree=0
num_leaves=63
num_cat=5
split_feature=14 17 14 18 17 14 14 17 17 17 17 10 17 14 20 14 14 8 10 10 1 14 19 9 1 10 19 8 10 19 17 8 8 20 8 8 16 14 18 14 8 16 17 8 1 8 8 19 17 14 16 17 17 17 14 8 16 8 10 17 14 17
split_gain=8.64695e+13 1.62433e+13 1.26689e+13 2.68065e+12 2.56167e+12 1.65761e+12 1.58352e+12 3.78786e+11 3.04771e+11 3.02953e+11 3.02809e+11 2.49883e+11 2.47112e+11 2.15922e+11 2.15018e+11 1.9967e+11 1.86328e+11 1.72039e+11 1.55168e+11 1.31915e+11 1.94961e+11 1.25031e+11 1.21016e+11 1.1998e+11 9.79717e+10 8.98839e+10 1.14923e+11 7.66052e+10 6.63553e+10 6.78068e+10 6.32913e+10 6.14436e+10 8.11827e+10 1.14546e+11 9.21786e+10 6.04775e+10 5.88732e+10 5.68957e+10 5.57146e+10 5.27225e+10 5.03339e+10 4.98559e+10 4.63616e+10 4.48125e+10 3.86398e+10 6.4627e+10 4.13302e+10 3.8435e+10 3.81213e+10 3.79106e+10 3.70365e+10 3.60655e+10 3.41923e+10 3.16308e+10 3.04726e+10 2.95494e+10 2.83976e+10 2.82992e+10 2.82164e+10 2.80242e+10 2.73598e+10 2.72144e+10
threshold=32236.000000000004 70238.007499999963 11607.870000000001 99590.099999999991 49092.991249999926 20604.425000000003 4734.3100000000004 39394.783749999951 113266.76124999997 84907.731249999997 58312.486249999922 0.98182534576205305 25248.503749999942 15894.135000000002 0 1871.6000000000001 7826.9900000000007 50.500000000000007 0.98182534576205305 0.70581670320594814 1 70976.930000000008 20390.706704846558 -0.61559370248597534 2 0.98182534576205305 20390.706704846558 50.500000000000007 0.98182534576205305 12343.766573357863 92223.37749999993 50.500000000000007 45.500000000000007 3 46.500000000000007 48.500000000000007 23868.095000000005 74236.36500000002 135247.49562500001 27942.825000000001 49.500000000000007 39341.37000000001 64631.204999999994 48.500000000000007 4 45.500000000000007 46.500000000000007 10226.502375826443 34076.953749999891 44695.67500000001 16020.640000000001 76714.160000000003 18172.327499999981 13349.342499999979 58940.525000000001 49.500000000000007 34655.975000000006 48.500000000000007 0.98182534576205305 22281.626249999954 53821.73000000001 9339.1574999998938
decision_type=2 2 2 2 2 2 2 2 2 2 2 2 2 2 1 2 2 2 2 2 9 2 2 2 9 2 2 2 2 2 2 2 2 1 2 2 2 2 2 2 2 2 2 2 9 2 2 2 2 2 2 2 2 2 2 2 2 2 2 2 2 2
left_child=2 4 6 9 7 13 15 17 21 25 28 30 27 53 38 -1 -8 19 37 48 23 -5 -13 -21 -12 43 -27 40 35 -30 -11 32 49 34 -34 60 -19 -16 -10 -14 44 -37 -26 51 45 -7 -47 -33 -2 -9 -25 -3 -15 -4 -22 -32 -35 -52 -44 -46 -6 -18
right_child=1 3 5 8 10 12 16 31 14 11 24 22 39 52 18 -17 61 36 -20 20 54 -23 -24 50 42 26 -28 -29 29 -31 55 47 33 56 -36 41 -38 -39 -40 -41 -42 -43 58 -45 59 46 -48 -49 -50 -51 57 -53 -54 -55 -56 -57 -58 -59 -60 -61 -62 -63
leaf_value=15228.629297514291 16823.053539576104 18851.597132078408 15833.521190832311 17849.109973160605 17760.705892737009 16500.021907244733 15516.203053472669 17295.763621234073 21211.498373283943 19563.585115731104 16576.711234195394 19392.59437629686 16540.584976000413 16059.09584360233 18468.515875294186 15364.5228177889 15635.830461942907 15899.110510092962 18363.93852370821 20423.524183206817 17090.671203433478 20427.064933515856 17079.96188166468 17411.340256687588 18262.24629723221 18792.196463431272 16642.383200663509 15923.916753091884 17695.665765504888 16387.827449347657 20052.208173472409 17190.259707164016 21642.943372926762 18967.600273968426 18504.170515900161 19712.832937531501 16707.451103402258 21173.53952905201 21772.182912462747 16739.525835735163 16965.007087765724 18223.4659536666 18604.211526602423 19755.014485007061 16243.652757095517 18942.08086232841 17002.373108779724 16273.363364684572 17036.923530924396 17512.442376238298 17995.263330310827 19150.444538321372 16192.174256976567 15949.15370417998 18210.499929846403 21231.305019597148 17531.421746344 19069.532083272406 17875.721709200097 16404.954257785757 17977.120327578974 15732.204046385434
leaf_weight=66501 3307 2047 10936 49 3264 1793 33178 4900 802 1009 102 102 6198 10424 22 45542 13333 426 93 61 1701 1172 127 147 3305 201 90 993 300 148 1039 326 27 36 175 73 478 167 990 7198 357 244 2079 206 5313 43 76 176 5632 3433 161 1992 8989 12879 63 56 784 99 142 5460 2643 16257
leaf_count=66501 3307 2047 10936 49 3264 1793 33178 4900 802 1009 102 102 6198 10424 22 45542 13333 426 93 61 1701 1172 127 147 3305 201 90 993 300 148 1039 326 27 36 175 73 478 167 990 7198 357 244 2079 206 5313 43 76 176 5632 3433 161 1992 8989 12879 63 56 784 99 142 5460 2643 16257
internal_value=15992.1 18022.8 15624.9 19777.9 17501.6 16189.9 15396.5 17177.7 20950.3 19215.5 18079.2 19678.5 16493.9 15996.9 21319.3 15283.9 15597.6 16990 20035.9 17043.7 17387.5 20323.6 18110 18306.2 18349.3 18977.4 18127.3 16347.3 17851.3 17263.6 19849.3 17407.7 17436.6 17857.2 18923.7 17893.6 16326.5 20858.7 21521.3 16647.5 16379.5 18566.4 18376.7 19035.7 16363 16571.9 17703.3 16868.8 16957.8 17385 18045.7 18999 16120.7 15896.1 17124.2 20112.5 17594.5 18404.3 18557.6 16325.1 17857.5 15688.8
internal_weight=289866 44396 245470 10164 34232 70659 174811 21932 3295 6869 12300 2333 27431 43228 2074 112043 62768 12075 282 11171 2232 1221 229 468 5628 4536 291 14035 6672 448 2104 9857 9355 1022 202 6224 904 189 1792 13396 13042 317 5526 4245 12685 1912 119 502 8939 8333 407 4039 19413 23815 1764 1095 820 260 2221 10773 5907 29590
internal_count=289866 44396 245470 10164 34232 70659 174811 21932 3295 6869 12300 2333 27431 43228 2074 112043 62768 12075 282 11171 2232 1221 229 468 5628 4536 291 14035 6672 448 2104 9857 9355 1022 202 6224 904 189 1792 13396 13042 317 5526 4245 12685 1912 119 502 8939 8333 407 4039 19413 23815 1764 1095 820 260 2221 10773 5907 29590
cat_boundaries=0 1 4 7 8 10
cat_threshold=1 257 41944064 2 2097441 0 2 2 2097217 41944064
is_linear=0
shrinkage=1


Tree=1
num_leaves=63
num_cat=7
split_feature=14 17 14 18 17 14 14 17 17 14 17 16 10 14 17 14 14 8 10 1 19 10 10 19 9 19 10 19 20 8 10 19 8 20 17 18 8 8 8 16 16 16 17 14 10 8 17 19 10 20 9 17 15 1 14 14 8 8 1 17 1 14
split_gain=7.80392e+13 1.46595e+13 1.14367e+13 2.41928e+12 2.31284e+12 1.53074e+12 1.40176e+12 3.32572e+11 2.86963e+11 2.75327e+11 2.73415e+11 2.51143e+11 2.25519e+11 2.14246e+11 2.06112e+11 1.87116e+11 1.59844e+11 1.51369e+11 1.11513e+11 1.58673e+11 1.09217e+11 8.88121e+10 8.11202e+10 1.03718e+11 8.02506e+10 7.95045e+10 7.34485e+10 7.49001e+10 7.30874e+10 6.8761e+10 6.35063e+10 6.48443e+10 6.14767e+10 5.93941e+10 5.71204e+10 5.41139e+10 5.11733e+10 7.71354e+10 5.08574e+10 4.96457e+10 4.7989e+10 4.77115e+10 4.44631e+10 4.40069e+10 4.37989e+10 4.04433e+10 3.77979e+10 3.46823e+10 3.28145e+10 4.80403e+10 3.967e+10 3.25491e+10 3.18402e+10 3.08573e+10 3.08228e+10 3.01423e+10 2.99164e+10 3.08982e+10 4.05881e+10 2.86604e+10 2.82914e+10 2.87322e+10
threshold=32236.000000000004 70238.007499999963 11958.840000000002 99590.099999999991 47793.037499999999 5086.295000000001 20923.525000000005 58312.486249999922 38535.161249999925 70976.930000000008 84907.731249999997 114293.49000000001 0.98182534576205305 2181.0250000000001 26269.422499999917 16373.380000000003 8209.5450000000019 50.500000000000007 0.70581670320594814 0 20390.706704846558 0.98182534576205305 0.98182534576205305 20390.706704846558 -0.61559370248597534 16114.594726166522 0.98182534576205305 41693.850483144 1 50.500000000000007 0.98182534576205305 12343.766573357863 48.500000000000007 2 92223.37749999993 135247.49562500001 50.500000000000007 49.500000000000007 48.500000000000007 39341.37000000001 23012.930000000004 36791.935000000005 64631.204999999994 45840.770000000011 0.98182534576205305 48.500000000000007 51826.748749999904 10226.502375826443 0.70581670320594814 3 -0.51639395938746191 76714.160000000003 23919.510000000006 4 29067.535000000003 57120.480000000003 50.500000000000007 45.500000000000007 5 113266.76124999997 6 24452.105000000003
decision_type=2 2 2 2 2 2 2 2 2 2 2 2 2 2 2 2 2 2 2 9 2 2 2 2 2 2 2 2 1 2 2 2 2 1 2 2 2 2 2 2 2 2 2 2 2 2 2 2 2 1 2 2 2 9 2 2 2 2 9 2 9 2
left_child=2 4 5 10 8 13 15 30 17 -5 22 26 34 -1 29 -4 -7 18 52 24 -14 42 45 -24 33 -23 59 -28 35 38 32 -32 46 -20 -12 -13 37 43 60 -34 -19 -39 -9 -10 -30 51 -6 -38 -45 50 -50 -3 -2 -40 -16 -21 57 -17 -59 -11 -8 -62
right_child=1 3 6 9 7 16 14 21 36 11 12 28 20 -15 54 56 -18 40 19 55 -22 25 23 -25 -26 -27 27 -29 44 -31 31 -33 39 -35 -36 -37 47 41 53 -41 -42 -43 -44 48 -46 -47 -48 -49 49 -51 -52 -53 -54 -55 -56 -57 -58 58 -60 -61 61 -63
leaf_value=-719.98776302035037 303.14809973130531 2716.4909465944475 -71.13614391168224 1775.0420172275642 1604.2497305654897 -433.52385428122926 -148.2236181818453 2174.7806816207576 1240.712739007507 4238.5043297313086 3392.8795033661891 4923.5358429163825 3230.438373161765 -580.45263262604863 572.83061873283373 132.10071855175525 -270.68331169622377 -117.59624615956328 1324.9166108630952 972.35319656692195 1033.4374982225615 2069.3012613932292 2660.0603790131377 617.73773788452149 1828.8722955346345 592.72103114225433 4111.6924111643148 1414.3132655750624 4703.0487813835471 -34.325461073135266 1593.611839566418 385.10714966779699 3444.471804844648 4458.6758608217597 3914.3571470105594 5490.9827219604003 1100.4600411538775 3109.2445566485007 1324.0050203487344 2078.7602770262811 636.06208430127811 1632.9654465754229 2472.2310753277698 1403.8313115163674 2970.4618339106723 3574.7373885960255 1840.5265266350216 223.49502428705819 4290.467815755208 1541.9790288918794 2212.5297198860012 3000.3959573768711 915.71814957374249 544.17176731353834 738.71100094531073 2081.4647468566895 -157.13036400941428 874.01964299833617 240.47998759849827 4830.997499396718 327.51520612387998 481.8047445160912
leaf_weight=72167 218 2047 23783 78 2983 31994 256 3152 6752 963 1009 731 102 44456 6193 15558 28489 392 21 1430 127 240 201 90 507 147 62 44 117 1005 331 167 87 54 1095 988 347 93 211 283 458 133 2089 1897 53 206 3913 167 30 299 98 1992 7880 443 5112 64 801 298 1606 259 8384 4714
leaf_count=72167 218 2047 23783 78 2983 31994 256 3152 6752 963 1009 731 102 44456 6193 15558 28489 392 21 1430 127 240 201 90 507 147 62 44 117 1005 331 167 87 54 1095 988 347 93 211 283 458 133 2089 1897 53 206 3913 167 30 299 98 1992 7880 443 5112 64 801 298 1606 259 8384 4714
internal_value=0.00101055 1929.1 -348.899 3596.51 1434.02 -560.939 200.42 1946.71 1104.57 4710.29 3062.24 4781.46 3502.1 -666.798 486.592 21.2944 -356.822 929.488 983.041 1309.98 2012.01 2239.37 2836 2028.41 2019.98 1508.43 4254.57 2992.03 5151.87 365.171 1734.57 1188.35 1772.01 3581.22 3664.28 5249.68 1301.19 1328.03 393.832 2399.89 288.493 2240.46 2293.34 1305.31 4162.89 2891.36 1738.32 815.532 1492.97 1888.98 2699.55 2856.51 899.228 824.335 647.84 1013.08 141.662 155.368 345.49 4364.08 372.749 382.752
internal_weight=289866 44396 245470 10164 34232 177106 68364 13392 20840 3295 6869 3217 2333 116623 26318 42046 60483 11024 10174 2076 229 5628 4536 291 582 387 1328 106 1889 15013 7764 498 7266 75 2104 1719 9816 9302 14008 370 850 226 5241 9076 170 4245 6896 514 2324 427 128 4039 8098 654 11305 1494 18263 17462 1904 1222 13354 13098
internal_count=289866 44396 245470 10164 34232 177106 68364 13392 20840 3295 6869 3217 2333 116623 26318 42046 60483 11024 10174 2076 229 5628 4536 291 582 387 1328 106 1889 15013 7764 498 7266 75 2104 1719 9816 9302 14008 370 850 226 5241 9076 170 4245 6896 514 2324 427 128 4039 8098 654 11305 1494 18263 17462 1904 1222 13354 13098
cat_boundaries=0 3 4 5 6 9 11 13
cat_threshold=16641 41944128 2 1 1 2 24609 32832 2 16777505 8422400 50364416 21495808
is_linear=0
shrinkage=0.05


Tree=2
num_leaves=63
num_cat=6
split_feature=14 17 14 18 17 14 14 17 17 17 17 10 14 20 14 17 14 8 10 10 1 14 19 10 19 9 10 8 19 8 20 19 8 17 8 8 16 14 8 18 16 16 14 14 8 8 17 17 19 17 8 16 19 14 8 1 14 1 14 8 10 20
split_gain=7.043e+13 1.32302e+13 1.03254e+13 2.1834e+12 2.08953e+12 1.42809e+12 1.22418e+12 3.09884e+11 2.51546e+11 2.4691e+11 2.46757e+11 2.03531e+11 2.01176e+11 1.74528e+11 1.72461e+11 1.70479e+11 1.47512e+11 1.40014e+11 1.27822e+11 1.07828e+11 1.6149e+11 1.01781e+11 9.86966e+10 7.3211e+10 9.36055e+10 7.12547e+10 7.05809e+10 6.43206e+10 6.19095e+10 6.15599e+10 6.02143e+10 5.62609e+10 5.5973e+10 5.15511e+10 5.00623e+10 6.93731e+10 4.82333e+10 4.63334e+10 4.59656e+10 4.46655e+10 4.45109e+10 4.189e+10 4.09425e+10 3.68264e+10 3.65001e+10 3.48085e+10 3.29205e+10 3.23009e+10 3.13491e+10 2.93756e+10 2.79965e+10 3.03322e+10 2.7977e+10 2.72336e+10 2.66683e+10 2.65821e+10 2.5656e+10 2.54946e+10 2.62624e+10 2.548e+10 2.52146e+10 4.39716e+10
threshold=32236.000000000004 70238.007499999963 12135.700000000003 99590.099999999991 49092.991249999926 5175.8150000000014 21243.695000000003 39394.783749999951 113266.76124999997 60212.644999999924 84907.731249999997 0.98182534576205305 2181.0250000000001 0 16373.380000000003 26795.651249999912 8730.8650000000034 50.500000000000007 0.98182534576205305 0.70581670320594814 1 74236.36500000002 18011.08690716431 0.98182534576205305 20390.706704846558 -0.61559370248597534 0.98182534576205305 50.500000000000007 16114.594726166522 50.500000000000007 2 12343.766573357863 48.500000000000007 92223.37749999993 50.500000000000007 49.500000000000007 24707.910000000007 74236.36500000002 48.500000000000007 135247.49562500001 39341.37000000001 37623.410000000011 45840.770000000011 53821.73000000001 48.500000000000007 49.500000000000007 34076.953749999891 18703.217500000002 10226.502375826443 76714.160000000003 49.500000000000007 16020.640000000001 18011.08690716431 844.18500000000006 49.500000000000007 3 6875.6500000000005 4 24905.265000000003 50.500000000000007 0.70581670320594814 5
decision_type=2 2 2 2 2 2 2 2 2 2 2 2 2 1 2 2 2 2 2 2 9 2 2 2 2 2 2 2 2 2 1 2 2 2 2 2 2 2 2 2 2 2 2 2 2 2 2 2 2 2 2 2 2 2 2 9 2 9 2 2 2 1
left_child=2 4 5 10 7 12 14 17 21 27 23 33 53 39 -4 29 56 19 37 46 25 -5 -13 44 -25 30 45 32 -28 38 -21 -29 43 -12 35 42 -19 -15 57 -10 -34 -37 -9 -6 49 -11 -2 59 -36 -3 -27 -52 -22 -1 -35 -40 -7 -8 -59 -16 -44 -62
right_child=1 3 6 8 9 16 15 34 13 26 11 22 -14 18 47 -17 -18 36 -20 20 52 -23 -24 24 -26 50 28 31 -30 -31 -32 -33 40 54 48 41 -38 -39 55 -41 -42 -43 60 -45 -46 -47 -48 -49 -50 -51 51 -53 -54 -55 -56 -57 -58 58 -60 -61 61 -63
leaf_value=-708.03795283756324 745.56139233965587 2580.6663354423613 -62.303240054402401 1762.3678844523879 1600.4559161345073 -439.85509528432385 -138.05883677422352 1207.8383627274236 4714.5819964249531 2209.1398555107135 3223.2356438537536 3111.5370027503191 -549.8307834139174 2243.5571755149149 101.38734906076547 628.67852058303572 -240.10747275560513 -71.112570818606144 2136.2184047493884 1327.9909511718752 936.79470627324872 4002.6449754270793 1013.6113766968706 2527.0572574141015 586.85083202785916 1593.7264572322229 2033.3056733002534 1540.5964868164065 596.30291014777288 -17.306301814631411 4279.1888881138393 360.57878505583733 3342.302861555233 3661.3536881917712 1081.6846417526526 3009.0123209635422 659.48046338790937 4684.6171892543043 1262.417603732639 5216.6013873106058 2046.5541144031145 1610.0902506510417 1367.7773612167034 1830.4595136413802 3396.0006679497878 3148.7090008121904 944.30787509651009 210.50465836263754 253.61075787327505 2850.3762044914279 773.96696864536841 2884.3081846788195 1973.055116182215 -644.76007723745715 4781.4955008370534 530.75372995420946 -354.7423819889263 327.94670560867507 476.01942665125489 -219.14882024161045 2576.5921736058185 1491.6712253216617
leaf_weight=44739 3307 2047 22660 53 3446 18307 242 6090 802 4106 1009 98 45601 22 9770 10287 25007 443 93 25 1545 1168 131 201 90 427 185 290 126 988 56 155 86 1039 326 90 461 167 215 990 289 132 2532 3516 206 101 5632 8954 176 1992 21 90 68 27428 56 420 17147 8385 4658 662 123 388
leaf_count=44739 3307 2047 22660 53 3446 18307 242 6090 802 4106 1009 98 45601 22 9770 10287 25007 443 93 25 1545 1168 131 201 90 427 185 290 126 988 56 155 86 1039 326 90 461 167 215 990 289 132 2532 3516 206 101 5632 8954 176 1992 21 90 68 27428 56 420 17147 8385 4658 662 123 388
internal_value=0.00584841 1832.65 -331.448 3416.68 1362.32 -530.631 196.506 1069.78 4474.77 1883.96 2909.12 3326.99 -632.041 4809.97 31.3596 472.107 -333.1 899.97 3653.75 948.404 1259.28 3905.4 1911.41 2694.2 1926.99 1954.21 2177.96 1713.26 1451.11 364.067 3368.33 1129.58 1748.67 3481.06 1277.8 1303.9 301.458 4400.47 391.136 4991.93 2343.71 2177.22 1282.67 1716.61 2746.8 2231.7 870.781 140.841 791.364 2713.68 1777.62 2485.05 974.44 -683.988 3718.64 806.721 -398.691 371.271 380.536 81.0466 1432.44 1752.82
internal_weight=289866 44396 245470 10164 34232 178229 67241 21932 3295 12300 6869 2333 117768 2074 42046 25195 60461 12075 282 11171 2232 1221 229 4536 291 619 4518 7782 311 14908 81 445 7337 2104 9857 9355 904 189 13920 1792 375 222 9133 6962 4245 4207 8939 19386 502 4039 538 111 1613 72167 1095 635 35454 13285 13043 10432 3043 511
internal_count=289866 44396 245470 10164 34232 178229 67241 21932 3295 12300 6869 2333 117768 2074 42046 25195 60461 12075 282 11171 2232 1221 229 4536 291 619 4518 7782 311 14908 81 445 7337 2104 9857 9355 904 189 13920 1792 375 222 9133 6962 4245 4207 8939 19386 502 4039 538 111 1613 72167 1095 635 35454 13285 13043 10432 3043 511
cat_boundaries=0 1 4 5 8 10 11
cat_threshold=1 16641 41944128 2 1 17441 32832 2 50364416 21495808 2
is_linear=0
shrinkage=0.05


Tree=3
num_leaves=63
num_cat=7
split_feature=14 17 14 17 17 14 14 10 17 17 17 20 17 14 14 14 8 14 10 19 10 1 10 19 9 17 1 8 15 10 10 20 14 14 14 19 16 1 8 8 1 8 16 8 10 19 8 16 8 8 14 14 15 19 17 8 8 1 19 16 8 10
split_gain=6.35747e+13 1.2275e+13 8.97309e+12 2.29146e+12 1.6857e+12 1.15753e+12 1.13387e+12 3.17076e+11 2.91435e+11 2.26394e+11 2.21374e+11 2.14115e+11 1.87178e+11 1.81872e+11 1.63682e+11 1.44439e+11 1.21078e+11 1.13017e+11 8.30732e+10 8.73003e+10 8.30715e+10 1.20927e+11 8.16174e+10 7.07297e+10 7.06842e+10 6.77322e+10 6.59713e+10 5.32286e+10 5.13126e+10 4.72148e+10 4.92308e+10 8.941e+10 4.51834e+10 4.49274e+10 4.44479e+10 4.32412e+10 4.23404e+10 4.0055e+10 3.72294e+10 7.1343e+10 9.81301e+10 5.13835e+10 3.69947e+10 3.52787e+10 3.05906e+10 4.12246e+10 3.99289e+10 3.70684e+10 3.05628e+10 3.022e+10 3.01609e+10 2.90495e+10 2.80722e+10 2.80433e+10 2.77539e+10 2.74583e+10 3.24782e+10 4.25508e+10 2.62823e+10 2.59973e+10 2.56578e+10 2.54658e+10
threshold=31579.640000000003 67146.621249999967 11440.960000000001 101282.21999999993 46535.139999999948 19975.710000000003 4250.6250000000009 0.98182534576205305 80354.623749999999 56461.814999999951 37710.392499999893 0 24348.184999999972 115279.36500000001 7225.2600000000011 15206.610000000002 50.500000000000007 1511.8800000000003 0.98182534576205305 20390.706704846558 0.70581670320594814 1 0.98182534576205305 14622.777763228063 -0.61559370248597534 92223.37749999993 2 50.500000000000007 114224.59500000002 0.98182534576205305 0.70581670320594814 3 93835.595000000016 27407.175000000003 70976.930000000008 12343.766573357863 139042.05500000002 4 50.500000000000007 45.500000000000007 5 46.500000000000007 22601.060000000001 48.500000000000007 0.98182534576205305 12343.766573357863 49.500000000000007 53394.695000000007 45.500000000000007 49.500000000000007 55442.960000000014 9701.9850000000024 23919.510000000006 8831.9937284850494 62354.393749999967 50.500000000000007 45.500000000000007 6 20390.706704846558 56690.450000000004 49.500000000000007 0.78574730703237883
decision_type=2 2 2 2 2 2 2 2 2 2 2 1 2 2 2 2 2 2 2 2 2 9 2 2 2 2 9 2 2 2 2 1 2 2 2 2 2 9 2 2 9 2 2 2 2 2 2 2 2 2 2 2 2 2 2 2 2 9 2 2 2 2
left_child=2 4 6 8 10 15 17 13 22 29 16 -9 27 34 -8 -4 20 -1 25 -20 52 24 43 -24 -22 -10 -11 37 -15 30 -6 61 38 -14 -5 -31 -13 48 39 -12 41 -41 -18 50 46 -46 54 -48 -7 -39 -3 -16 -2 -40 -28 56 -17 -58 -23 -45 -43 -32
right_child=1 3 5 7 9 12 14 11 18 26 32 36 33 28 51 55 42 -19 19 -21 21 58 23 -25 -26 -27 44 -29 -30 35 31 -33 -34 -35 -36 -37 -38 49 53 40 -42 60 -44 59 45 -47 47 -49 -50 -51 -52 -53 -54 -55 -56 -57 57 -59 -60 -61 -62 -63
leaf_value=-661.4158503686034 260.46607742924846 1322.433014006534 -101.63117720626657 2553.8719992501397 1480.246208910743 488.79381774058805 -431.85548398347794 4057.7448753720237 2935.7931412057255 533.13920289336659 1103.8129865383687 857.27026765961 439.72236824020302 4092.6545914475937 -312.10337137892253 73.473253564949388 -114.75697178455314 -556.84510173304943 2834.1448543595679 863.0975336030474 3400.5896499633791 869.1434042494177 2265.0442848644038 694.81802369414788 1625.4303349475988 3426.2041820116633 1862.9523245114924 -77.408739440836541 4835.9723993004191 1352.3385533032761 4358.5632402343754 1653.0809815892071 3451.6544549851192 616.56774025380776 3996.2622885382843 330.90557287378249 2445.245036522118 256.56350429659864 985.00449606158782 4183.1629763719511 1223.5016681342536 1876.3974745396206 540.6049601716511 4303.7311304995883 1806.4819833945469 521.0607596707631 4359.6290763608877 2370.984864298503 1313.915963942005 756.04806298281983 2461.1540942295105 -216.31585676849846 800.75040097585008 207.97680601912941 2103.0003474646433 -186.41431972906327 779.30578234269171 177.89243695915042 2045.5161371970662 2848.8925189208985 3150.932977627841 2633.2379216374579
leaf_weight=59577 248 59 21533 56 6105 1182 34288 168 2089 112 8227 97 7146 274 21761 17510 396 45626 162 86 64 1531 174 122 453 1062 3019 1010 1521 321 25 1018 21 7220 1155 153 74 11519 334 41 791 140 472 38 251 83 31 96 124 311 4036 12440 7867 178 2003 900 347 1807 49 160 55 148
leaf_count=59577 248 59 21533 56 6105 1182 34288 168 2089 112 8227 97 7146 274 21761 17510 396 45626 162 86 64 1531 174 122 453 1062 3019 1010 1521 321 25 1018 21 7220 1155 153 74 11519 334 41 791 140 472 38 251 83 31 96 124 311 4036 12440 7867 178 2003 900 347 1807 49 160 55 148
internal_value=0.00841143 1714.6 -319.783 3140.89 1242.4 155.485 -512.988 4239.58 2680.81 1680.82 961.603 2789.98 401.475 4403.06 -354.657 -11.1228 808.544 -616.064 3031.73 2150.64 856.732 1137.27 2420.9 1617.86 1810.17 3101.08 1923.33 272.373 4722.51 1506.2 1537.61 1831.67 1134.88 528.601 3929.56 1022.64 1544.46 299.267 1129.9 1152.86 1545.8 2469.54 241.615 2476.27 1947.21 1487.05 1980.84 2856.4 562.827 269.467 2444.75 -277.262 784.239 714.866 1958.69 83.6504 96.011 279.221 899.93 3128.1 2235.88 2882.56
internal_weight=289866 45565 244301 11333 34232 70609 173692 3345 7988 13365 20867 339 28512 3006 68489 42097 11080 105203 3399 248 10212 2097 4589 296 517 3151 5595 14146 1795 7770 7296 1191 9787 14366 1211 474 171 13136 9766 9254 1027 236 868 4293 5483 334 5149 127 1306 11830 4095 34201 8115 512 5022 20564 19664 2154 1580 198 195 173
internal_count=289866 45565 244301 11333 34232 70609 173692 3345 7988 13365 20867 339 28512 3006 68489 42097 11080 105203 3399 248 10212 2097 4589 296 517 3151 5595 14146 1795 7770 7296 1191 9787 14366 1211 474 171 13136 9766 9254 1027 236 868 4293 5483 334 5149 127 1306 11830 4095 34201 8115 512 5022 20564 19664 2154 1580 198 195 173
cat_boundaries=0 1 4 7 8 10 12 14
cat_threshold=1 16641 41944064 2 2097441 0 2 2 2097217 8388608 16417 41944064 16777505 12616704
is_linear=0
shrinkage=0.05


Tree=4
num_leaves=63
num_cat=7
split_feature=14 17 14 17 17 14 14 10 17 17 17 20 17 17 14 14 8 14 10 19 1 10 15 10 1 9 19 17 14 8 10 1 9 1 14 16 10 8 18 19 17 10 10 20 1 17 14 19 8 16 14 17 17 15 17 14 16 19 10 8 14 8
split_gain=5.73847e+13 1.13753e+13 7.79533e+12 2.06892e+12 1.61136e+12 1.0298e+12 9.58246e+11 2.86161e+11 2.64693e+11 2.26984e+11 2.0514e+11 1.93239e+11 1.72759e+11 1.67178e+11 1.36086e+11 1.24505e+11 1.00596e+11 9.76438e+10 8.16832e+10 8.8877e+10 7.92462e+10 6.89992e+10 6.65685e+10 6.64133e+10 1.05452e+11 6.53298e+10 5.68304e+10 4.99862e+10 4.963e+10 4.9638e+10 6.90319e+10 1.18082e+11 5.0041e+10 4.81464e+10 4.28765e+10 3.82122e+10 3.73671e+10 4.60608e+10 5.94929e+10 4.47515e+10 3.53187e+10 3.49447e+10 3.69552e+10 6.03269e+10 3.47252e+10 3.45857e+10 3.41004e+10 3.17347e+10 3.12478e+10 2.96197e+10 2.59016e+10 2.52327e+10 2.49525e+10 2.4284e+10 2.32249e+10 2.24407e+10 2.24118e+10 2.18638e+10 2.10177e+10 2.05835e+10 2.64447e+10 1.9827e+10
threshold=30933.360000000004 67146.621249999967 11105.740000000003 101282.21999999993 46535.139999999948 19376.635000000006 4168.3400000000011 0.98182534576205305 84907.731249999997 36143.148749999913 54770.167499999974 0 23462.13124999998 113266.76124999997 7102.1050000000005 14547.265000000001 50.500000000000007 1346.4100000000001 0.98182534576205305 14622.777763228063 1 0.98182534576205305 65093.785000000011 0.70581670320594814 2 -0.61559370248597534 18011.08690716431 73598.216249999954 41549.795000000006 50.500000000000007 0.70581670320594814 3 -0.61559370248597534 4 26356.175000000003 139042.05500000002 0.98182534576205305 48.500000000000007 49830.15937500001 12343.766573357863 62354.393749999967 0.98182534576205305 0.70581670320594814 5 6 138067.54625000004 70976.930000000008 13309.904711303048 48.500000000000007 21087.455000000005 68167.940000000017 17141.789999999943 92223.37749999993 23919.510000000006 8803.0312499999291 58940.525000000001 16754.170000000002 8831.9937284850494 0.98182534576205305 49.500000000000007 52246.015000000007 48.500000000000007
decision_type=2 2 2 2 2 2 2 2 2 2 2 1 2 2 2 2 2 2 2 2 9 2 2 2 9 2 2 2 2 2 2 9 2 9 2 2 2 2 2 2 2 2 2 1 9 2 2 2 2 2 2 2 2 2 2 2 2 2 2 2 2 2
left_child=2 4 6 8 9 15 17 13 18 16 41 -9 33 -5 -8 -4 23 -1 27 -20 -12 46 -15 53 25 -25 -23 -3 -11 30 -30 32 -32 -7 -14 -13 37 40 -39 -38 -22 42 -6 -44 -35 -24 -10 -43 -34 -18 -45 58 -48 -2 -16 -26 -27 -31 -17 60 -29 -58
right_child=1 3 5 7 10 12 14 11 21 28 20 35 34 22 54 51 49 -19 19 -21 36 26 45 24 55 56 -28 59 29 57 31 -33 48 44 -36 -37 39 38 -40 -41 -42 47 43 50 -46 -47 52 -49 -50 -51 -52 -53 -54 -55 -56 -57 61 -59 -60 -61 -62 -63
leaf_value=-631.30219661260446 252.71029609652555 2229.4361138504387 -118.0766309465849 3670.6111438586322 1376.2696278699711 -143.49626609293622 -414.43059472765475 3854.8575363885789 2020.8454456068066 955.54294858898322 396.72527471269882 814.40673471037871 381.28533645439893 2531.3911185524685 -316.82343657568072 24.236280118762657 -142.58757353984649 -534.13597855077967 2256.8194089710205 678.03976094987661 1730.4687138407007 2803.7504349226806 4281.1667224355342 3381.9202840909093 788.85725424447674 1091.2615379736289 926.57866945128524 867.39729181925452 1114.7047851443438 926.1190950195313 4535.9381721047794 1226.5505402956458 1910.5802443892867 493.50815177263377 548.34149400612375 2322.9827487430061 1670.0153891194664 3957.4471453631363 2121.9909147404446 487.07804613725858 1990.4757082315668 1253.1263991477274 2631.7647086995444 1497.4806468057977 224.41358459115702 4705.5942005301058 2941.5577027970135 302.59425622800063 3272.7460357223736 459.00584118919534 3130.8204726562503 116.09527894159157 3293.0074516999393 721.99100697586346 -232.91408961133567 1910.4301630434784 1545.0695977993671 180.43683726007555 -240.78966262149811 3328.0500361689819 2533.5330884412588 2585.096398379198
leaf_weight=56166 287 2150 20464 1041 5268 815 34224 168 73 6586 123 97 7168 44 15525 11527 360 47911 234 144 3899 97 938 55 1464 161 69 24 4037 250 34 716 108 1343 8275 74 300 54 242 109 1964 275 150 834 12037 983 990 129 69 474 25 9309 1031 6985 17590 46 145 162 800 81 3096 67
leaf_count=56166 287 2150 20464 1041 5268 815 34224 168 73 6586 123 97 7168 44 15525 11527 360 47911 234 144 3899 97 938 55 1464 161 69 24 4037 250 34 716 108 1343 8275 74 300 54 242 109 1964 275 150 834 12037 983 990 129 69 474 25 9309 1031 6985 17590 46 145 162 800 81 3096 67
internal_value=0.0126694 1605.09 -308.336 2983.61 1163.45 129.284 -491.482 4027.6 2546.49 900.412 1596.34 2650.48 355.065 4182.91 -344.512 -29.6639 725.167 -586.573 2365.72 1655.38 1792.03 3004.71 4454.31 772.784 1032.87 1732.73 2023.48 2415.9 1047.56 1160.28 1204.05 1593.16 2653.32 229.154 470.801 1467.24 1814.79 1848.29 2456.84 1354.76 1817.57 1400.35 1429.36 1706.57 251.772 4498.35 3082.5 949.615 2441.59 199.325 1545.02 53.9596 3120.85 703.47 -272.253 817.61 1536 632.914 7.03658 2541.15 2520.72 1873.76
internal_weight=289866 46712 243154 11334 35378 71738 171416 3345 7989 22006 13372 339 29638 3006 67339 42100 10044 104077 5729 378 6691 2260 1965 9210 1938 428 166 5351 11962 5376 4964 927 211 14195 15443 171 6568 6159 296 409 5863 6681 6277 1009 13380 1921 2094 404 177 834 859 21636 2021 7272 33115 1510 373 412 12327 3201 3120 212
internal_count=289866 46712 243154 11334 35378 71738 171416 3345 7989 22006 13372 339 29638 3006 67339 42100 10044 104077 5729 378 6691 2260 1965 9210 1938 428 166 5351 11962 5376 4964 927 211 14195 15443 171 6568 6159 296 409 5863 6681 6277 1009 13380 1921 2094 404 177 834 859 21636 2021 7272 33115 1510 373 412 12327 3201 3120 212
cat_boundaries=0 1 4 7 10 13 14 16
cat_threshold=1 2097409 0 2 257 41944064 2 16385 41944064 2 51548160 21757956 16384 2 2097217 8388608
is_linear=0
shrinkage=0.05


Tree=5
num_leaves=63
num_cat=7
split_feature=14 17 14 18 17 14 14 17 17 17 17 14 10 17 20 17 8 14 10 14 10 1 19 1 10 19 9 8 20 8 8 1 10 19 10 20 14 8 8 16 18 8 16 8 17 8 17 8 8 17 14 16 8 14 19 15 17 1 19 16 15 19
split_gain=5.18103e+13 9.47155e+12 7.88839e+12 1.61282e+12 1.45475e+12 1.09199e+12 9.48634e+11 2.03796e+11 1.88839e+11 1.80977e+11 1.80821e+11 1.71912e+11 1.51825e+11 1.45804e+11 1.27354e+11 1.24921e+11 1.033e+11 9.81599e+10 9.02929e+10 7.84911e+10 7.7439e+10 1.15416e+11 7.52107e+10 6.68869e+10 5.4238e+10 7.05802e+10 5.14205e+10 4.8343e+10 4.77249e+10 4.32292e+10 4.15404e+10 8.65274e+10 4.01601e+10 4.12912e+10 3.98789e+10 8.62649e+10 3.78866e+10 3.68713e+10 5.58157e+10 3.55149e+10 3.49038e+10 3.48217e+10 3.39913e+10 3.29051e+10 3.13386e+10 3.02795e+10 2.98427e+10 2.95073e+10 2.88782e+10 2.8379e+10 2.7878e+10 2.5384e+10 2.9871e+10 2.37094e+10 2.31283e+10 2.31149e+10 2.23606e+10 2.20303e+10 2.12168e+10 1.9494e+10 3.04591e+10 1.88523e+10
threshold=32902.810000000005 70238.007499999963 12322.890000000001 99590.099999999991 49092.991249999926 5463.005000000001 21962.190000000006 39394.783749999951 113266.76124999997 84907.731249999997 58312.486249999922 2567.1750000000006 0.98182534576205305 16175.14541666657 0 27304.328749999961 50.500000000000007 8730.8650000000034 0.98182534576205305 63243.485000000008 0.70581670320594814 1 20390.706704846558 2 0.98182534576205305 20390.706704846558 -0.61559370248597534 50.500000000000007 3 49.500000000000007 45.500000000000007 4 0.98182534576205305 13309.904711303048 0.70581670320594814 5 18186.750000000004 50.500000000000007 49.500000000000007 23868.095000000005 135247.49562500001 6.5000000000000009 37623.410000000011 50.500000000000007 92223.37749999993 46.500000000000007 43059.858749999992 48.500000000000007 48.500000000000007 64631.204999999994 933.66000000000008 16020.640000000001 48.500000000000007 58940.525000000001 10226.502375826443 25790.590000000004 80354.623749999999 6 18011.08690716431 28243.105000000003 58559.17500000001 20390.706704846558
decision_type=2 2 2 2 2 2 2 2 2 2 2 2 2 2 1 2 2 2 2 2 2 9 2 9 2 2 2 2 1 2 2 9 2 2 2 1 2 2 2 2 2 2 2 2 2 2 2 2 2 2 2 2 2 2 2 2 2 9 2 2 2 2
left_child=2 4 5 9 7 11 13 16 19 24 32 50 29 43 40 27 20 -7 41 -5 55 26 -14 -12 48 -26 28 30 -22 44 57 45 34 -34 -6 -36 -15 38 46 -18 -10 -16 -40 47 -11 -32 -9 -4 53 -25 -1 -28 -53 -3 -39 -2 -55 -8 -23 -46 -61 -21
right_child=1 3 6 8 10 17 15 37 14 12 23 -13 22 36 18 -17 39 -19 -20 61 21 58 -24 49 25 -27 51 -29 -30 -31 31 -33 33 -35 35 -37 -38 54 42 -41 -42 -43 -44 -45 59 -47 -48 -49 -50 -51 -52 52 -54 56 -56 -57 -58 -59 -60 60 -62 -63
leaf_value=-606.55167976422706 329.01324466362303 1340.4461082967123 -50.690765760642293 1169.2817062377931 1416.6781240738801 -333.69770339902948 -159.17819578707721 998.99511593623401 4041.5968406620168 2737.0157078676807 389.67105511937825 -457.08547463107027 2637.0089901194856 57.021072620655538 2240.9028509324598 565.46965792319077 -85.524769530284502 -203.10991060245033 1867.5774095104587 3478.4699220540215 1073.7695210774741 810.75863675322 810.62601739792603 1759.0591774924897 2171.8516907649255 487.08912170410161 1019.3674853300438 -13.546790475032607 3753.4765733506947 4097.479173642113 2150.90506544237 375.63597733066666 1309.7015983344684 275.55473910933694 2835.031631022654 1565.5107719640332 188.31920985928747 928.05204893708969 2667.6011085596951 560.03545891922136 4485.3796131234221 4074.6663241441088 1398.9658273407908 -303.42476754277055 3838.7484616397473 1047.5182346379424 1181.3185971461589 252.73162355687884 2933.8709249848303 1990.2090397083775 -546.03928452904279 1398.897410985435 2338.5113146464032 2273.7152415131136 215.47325347287315 774.86256335151586 2548.0694217326673 336.30790037761631 1714.9541977826289 1134.2688311767579 3106.3906325327966 2721.6621494250353
leaf_weight=47034 302 60 18765 40 5157 31998 228 4034 802 980 102 42219 102 9826 31 10254 403 26151 93 1091 24 1413 126 3302 201 90 156 927 54 84 77 1206 306 141 157 906 12463 326 88 452 990 157 132 1239 89 323 5059 837 206 2221 31971 205 144 2991 175 7774 988 11087 68 20 930 89
leaf_count=47034 302 60 18765 40 5157 31998 228 4034 802 980 102 42219 102 9826 31 10254 403 26151 93 1091 24 1413 126 3302 201 90 156 927 54 84 77 1206 306 141 157 906 12463 326 88 452 990 157 132 1239 89 323 5059 837 206 2221 31971 205 144 2991 175 7774 988 11087 68 20 930 89
internal_value=0.0158275 1596.01 -279.964 2931.4 1186.13 -453.094 181.942 931.373 3841.11 2495.15 1617.41 -538.537 2853.22 41.5417 4131.58 433.185 783.541 -274.969 3141.9 3347.55 828.044 1101.37 1627.69 1826.19 2311.15 1650.79 1704.89 335.233 2928.95 2986.09 360.256 598.22 1441.26 983.494 1474.16 1753.01 130.437 1096.99 1119.47 255.754 4286.77 3772.29 1906.42 -53.53 2939.85 1229.19 1100.43 -37.7347 2356.41 1848.67 -582.064 1549.59 1786.59 2326.96 679.147 758.19 2341.84 326.48 846.559 3131.16 3064.87 3421.39
internal_weight=289866 43261 246605 10160 33101 179373 67232 20809 3293 6867 12292 121224 2331 43130 2073 24102 10995 58149 281 1220 10140 2064 228 5625 4536 291 583 13848 78 2103 12921 1606 6667 447 6220 1063 22289 9814 9313 855 1792 188 220 20841 2019 400 9093 19602 4245 5523 79005 505 349 4039 501 8076 3979 11315 1481 1039 950 1180
internal_count=289866 43261 246605 10160 33101 179373 67232 20809 3293 6867 12292 121224 2331 43130 2073 24102 10995 58149 281 1220 10140 2064 228 5625 4536 291 583 13848 78 2103 12921 1606 6667 447 6220 1063 22289 9814 9313 855 1792 188 220 20841 2019 400 9093 19602 4245 5523 79005 505 349 4039 501 8076 3979 11315 1481 1039 950 1180
cat_boundaries=0 1 4 7 8 11 12 14
cat_threshold=1 16641 41944128 2 2097441 0 2 1 16793889 8389632 2 2 50364672 4194304
is_linear=0
shrinkage=0.05


Tree=6
num_leaves=63
num_cat=7
split_feature=14 17 14 17 17 14 14 20 17 17 10 17 17 17 14 14 10 14 1 10 10 19 15 10 1 9 19 14 17 8 1 14 16 10 8 8 10 8 16 19 19 17 8 20 17 1 14 8 8 1 8 14 14 8 17 15 18 8 8 16 14 17
split_gain=4.67624e+13 9.26308e+12 6.35495e+12 1.69011e+12 1.31466e+12 8.64051e+11 7.58797e+11 2.38988e+11 2.16404e+11 2.03669e+11 1.82129e+11 1.65249e+11 1.57512e+11 1.33389e+11 1.13037e+11 9.00941e+10 8.2333e+10 7.15767e+10 6.64873e+10 6.19013e+10 6.04069e+10 6.59564e+10 5.61806e+10 5.57609e+10 8.63741e+10 5.27669e+10 5.25722e+10 4.83555e+10 4.80116e+10 4.33431e+10 3.80729e+10 3.74807e+10 3.44682e+10 3.38347e+10 3.52032e+10 3.29485e+10 3.24493e+10 4.13235e+10 4.13744e+10 3.88094e+10 3.09305e+10 3.06406e+10 2.975e+10 4.76658e+10 2.8692e+10 2.70666e+10 2.70464e+10 3.43157e+10 5.98757e+10 8.60889e+10 2.97788e+10 2.65959e+10 2.58033e+10 2.27643e+10 2.09749e+10 2.01792e+10 2.01526e+10 1.95085e+10 1.9051e+10 1.90198e+10 1.86392e+10 1.82436e+10
threshold=30933.360000000004 67146.621249999967 10947.390000000001 101282.21999999993 45294.034999999923 18753.430000000004 4004.8750000000005 0 80354.623749999999 54770.167499999974 0.98182534576205305 22663.532499999917 36143.148749999913 113266.76124999997 6989.6300000000001 14547.265000000001 0.98182534576205305 1291.9750000000001 1 0.98182534576205305 0.98182534576205305 23811.573216760651 55134.275000000009 0.70581670320594814 2 -0.61559370248597534 14622.777763228063 25865.840000000004 92223.37749999993 50.500000000000007 3 93835.595000000016 139042.05500000002 0.98182534576205305 49.500000000000007 13.500000000000002 0.98182534576205305 49.500000000000007 51823.950000000004 12343.766573357863 14622.777763228063 138067.54625000004 45.500000000000007 4 60212.644999999924 5 40615.610000000008 50.500000000000007 45.500000000000007 6 46.500000000000007 115279.36500000001 58940.525000000001 49.500000000000007 50397.778749999954 23919.510000000006 72804.941875000004 48.500000000000007 45.500000000000007 16754.170000000002 58940.525000000001 8803.0312499999291
decision_type=2 2 2 2 2 2 2 1 2 2 2 2 2 2 2 2 2 2 9 2 2 2 2 2 9 2 2 2 2 2 9 2 2 2 2 2 2 2 2 2 2 2 2 1 2 9 2 2 2 9 2 2 2 2 2 2 2 2 2 2 2 2
left_child=2 4 6 8 12 15 17 13 19 33 22 29 16 -5 -8 -4 23 -1 -11 42 28 -22 -9 55 25 -25 -21 -13 -10 30 58 46 -12 34 54 51 37 44 -39 -38 -35 -15 52 -44 -20 -18 -14 48 -48 50 -50 -24 -3 -32 -6 -2 -54 -52 -7 -27 -26 -16
right_child=1 3 5 7 9 11 14 10 20 18 32 27 31 41 61 -17 45 -19 36 26 21 -23 35 24 60 59 -28 -29 -30 -31 53 -33 -34 40 -36 -37 39 38 -40 -41 -42 -43 43 -45 -46 -47 47 -49 49 -51 57 -53 56 -55 -56 -57 -58 -59 -60 -61 -62 -63
leaf_value=-570.81380417402681 223.45614921622993 1262.3820661645186 -109.81734857682335 3352.4587499605036 1177.4738922465465 374.06128958017871 -378.99898328798668 1335.5839395812063 2520.2049654276307 345.12656568369471 699.96944060964688 320.54756484399928 847.93811942839625 3861.4307695888911 -287.71265454093219 38.747475302477433 537.4053420675807 -486.67981766549605 1539.7215825240783 1932.4984431124283 2427.2125124289773 699.21443198330439 2219.3257372359158 3052.3307017933239 713.65730610098535 983.65904840193934 578.74581548972208 486.87505700924908 2933.0962246864306 -129.5684299321216 163.13607102181959 3091.2446423339843 2132.7369769122151 1093.9613832032717 1942.7437916508429 3862.4599108602838 1504.4970196634929 3913.8153988486843 2008.7340726082784 402.89097197646402 205.97820864341244 4271.4233499817929 3609.8782638549806 2269.1789236615796 1758.2857447853128 -38.691248049419308 975.26139835143613 552.20912980539197 4422.7138020833336 1136.9559141989316 1776.7542291814634 3818.755325838415 1969.7414756105818 587.50053113438537 1350.8789630308713 651.24001215555882 2203.0558061996589 3249.3979853091037 894.11402100812052 1704.5117247311573 1736.0406419836957 -213.48062681323827
leaf_weight=54983 287 95 21587 989 4092 1329 35408 33 2089 123 97 8110 5569 881 16503 19354 322 46794 2970 174 165 83 71 55 1444 161 122 9475 1062 1039 11439 20 74 333 189 215 300 38 114 109 139 944 80 387 3037 532 4259 386 27 500 44 41 1699 325 3039 6985 2033 46 203 212 46 16605
leaf_count=54983 287 95 21587 989 4092 1329 35408 33 2089 123 97 8110 5569 881 16503 19354 322 46794 2970 174 165 83 71 55 1444 161 122 9475 1062 1039 11439 20 74 333 189 215 300 38 114 109 139 944 80 387 3037 532 4259 386 27 500 44 41 1699 325 3039 6985 2033 46 203 212 46 16605
internal_value=0.0166632 1448.94 -278.335 2692.91 1050.42 112.449 -445.534 3636.5 2297.83 1416.52 2663.59 307.451 796.658 3820.09 -316.898 -39.5864 653.97 -532.132 1618.86 2073.89 2600.23 1848.89 3301.79 697.609 937.426 1569.87 1374.53 410.167 2659.36 181.448 205.752 928.734 1320 1242.77 1269.22 3500.21 1639.69 1670.82 2485 1210.91 832.458 4073.5 2122.1 2498.85 1650.22 184.365 924.741 1006.02 1041.95 1502.29 2732.78 2804.83 2076.12 174.711 1251.37 634.357 2096.84 2529.44 440.099 1393.37 740.253 -250.482
internal_weight=289866 46712 243154 11334 35378 72861 170293 3345 7989 14483 531 31920 20895 2814 68516 40941 10044 101777 6691 4590 3399 248 360 9190 1918 428 296 17585 3151 14335 13296 10851 171 7792 7320 327 6568 6159 152 409 472 1825 4294 467 6007 854 10831 5262 4876 617 117 112 3827 11764 7131 7272 3732 90 1532 373 1490 33108
internal_count=289866 46712 243154 11334 35378 72861 170293 3345 7989 14483 531 31920 20895 2814 68516 40941 10044 101777 6691 4590 3399 248 360 9190 1918 428 296 17585 3151 14335 13296 10851 171 7792 7320 327 6568 6159 152 409 472 1825 4294 467 6007 854 10831 5262 4876 617 117 112 3827 11764 7131 7272 3732 90 1532 373 1490 33108
cat_boundaries=0 1 4 7 9 10 13 16
cat_threshold=1 2097409 0 2 257 41944064 2 2097217 41975808 2 1042 1677721603 16321 1 41944064 2
is_linear=0
shrinkage=0.05


Tree=7
num_leaves=63
num_cat=9
split_feature=14 17 14 17 17 14 14 10 17 17 17 20 14 14 17 14 17 8 10 1 1 1 8 15 1 14 19 1 9 16 8 8 16 16 10 19 8 17 14 8 10 8 20 19 1 8 8 14 8 16 10 17 10 8 1 19 15 14 19 17 15 19
split_gain=4.22165e+13 7.71549e+12 6.43188e+12 1.31536e+12 1.18434e+12 9.21351e+11 7.47804e+11 2.15869e+11 1.6702e+11 1.47422e+11 1.46551e+11 1.36178e+11 1.30187e+11 1.23497e+11 1.22574e+11 9.37787e+10 9.15936e+10 8.44722e+10 6.41552e+10 1.01366e+11 5.45074e+10 5.24968e+10 4.9813e+10 4.31424e+10 4.14701e+10 3.61782e+10 3.45049e+10 3.37221e+10 3.12105e+10 3.05192e+10 3.03433e+10 4.73048e+10 4.4915e+10 2.96535e+10 2.73619e+10 3.91984e+10 2.71497e+10 2.5937e+10 2.55699e+10 2.51738e+10 2.47454e+10 3.16475e+10 7.74837e+10 2.68644e+10 2.4241e+10 4.1246e+10 4.1155e+10 2.39216e+10 2.38271e+10 3.58984e+10 5.16798e+10 2.32091e+10 2.15449e+10 2.82453e+10 4.06923e+10 2.09293e+10 2.08928e+10 2.44165e+10 2.0187e+10 1.98564e+10 1.91982e+10 1.85623e+10
threshold=32902.810000000005 70238.007499999963 12512.640000000001 101282.21999999993 49092.991249999926 5271.545000000001 22337.730000000003 0.98182534576205305 39394.783749999951 58312.486249999922 84907.731249999997 0 2632.1150000000002 17392.105000000003 113266.76124999997 9267.9050000000007 27304.328749999961 50.500000000000007 0.70581670320594814 1 2 3 50.500000000000007 55134.275000000009 4 70976.930000000008 18011.08690716431 5 -0.61559370248597534 139042.05500000002 50.500000000000007 48.500000000000007 37623.410000000011 25196.915000000005 0.98182534576205305 20390.706704846558 49.500000000000007 138067.54625000004 44695.67500000001 48.500000000000007 0.98182534576205305 45.500000000000007 6 16114.594726166522 7 45.500000000000007 50.500000000000007 716.28500000000008 50.500000000000007 38458.260000000009 0.70581670320594814 14595.812499999938 0.98182534576205305 45.500000000000007 8 13309.904711303048 45573.600000000013 57120.480000000003 9251.0357698636562 6955.8437499999882 25790.590000000004 23811.573216760651
decision_type=2 2 2 2 2 2 2 2 2 2 2 1 2 2 2 2 2 2 2 9 9 9 2 2 9 2 2 9 2 2 2 2 2 2 2 2 2 2 2 2 2 2 1 2 9 2 2 2 2 2 2 2 2 2 9 2 2 2 2 2 2 2
left_child=2 4 5 10 8 12 13 14 17 27 21 -9 47 51 -5 59 24 18 60 28 -11 61 25 -16 -8 -12 -24 -6 -20 -13 31 38 -33 -19 36 -36 -23 -25 -10 -30 41 -22 56 -42 45 -26 -47 -1 49 50 -29 -4 53 -15 -55 -50 -43 -58 -32 -7 -2 -3
right_child=1 3 6 7 9 15 16 11 30 20 22 29 -14 52 23 -17 -18 33 19 -21 40 34 26 37 44 -27 -28 48 39 -31 58 32 -34 -35 35 -37 -38 -39 -40 -41 43 42 -44 -45 -46 46 -48 -49 55 -51 -52 -53 -54 54 -56 -57 57 -59 -60 -61 -62 -63
leaf_value=-551.3962236788492 292.58996018606507 1434.8763158997494 -76.345589099633401 3154.677364783654 364.2512120067625 -336.13020068375749 -117.12003535886534 3270.3052013578872 914.76952287420033 351.65097067696706 1608.3101230900463 674.87015158335373 -413.32805933110387 136.20165579370575 1802.8542759821967 -169.40629674729757 511.36110852714756 -59.552020689317544 3334.6191714638162 848.65347478845615 1654.0666214264163 2129.3037619870261 2356.75244140625 3666.7250448833265 398.49079880179022 2679.5060194512503 785.25508595128213 1313.9926138136123 1362.622200249566 2026.100113100619 856.696031671269 2306.5768101418666 1185.1289213193697 529.45718760972932 1985.3767555817738 600.57520519754166 2967.312440814394 4032.7191914319756 1086.600066235676 2477.5893403983409 1522.994580180276 1894.9433349609376 1788.8425856522565 496.84845773981908 294.49292654154044 1366.6531598146721 -15.554445465517716 -496.73698186952333 1157.858844346734 1314.343356429267 2689.6521709894732 20.178716480721754 -84.200772933663487 716.19809382170331 192.88613983317774 296.25032761242926 2205.6612841796878 4236.1672474643638 200.49208897473341 -264.4441123351836 698.91416639927115 195.3756694585627
leaf_weight=41333 302 67 11845 1040 123 17858 544 168 5168 102 82 96 38778 15343 26 22666 10211 435 38 1810 4607 4074 80 950 1995 2034 62 162 135 74 314 129 290 420 197 69 99 987 3726 81 239 20 493 87 9910 223 71 38815 251 5915 118 13132 965 516 1358 98 20 57 187 21042 7774 55
leaf_count=41333 302 67 11845 1040 123 17858 544 168 5168 102 82 96 38778 15343 26 22666 10211 435 38 1810 4607 4074 80 950 1995 2034 62 162 135 74 314 129 290 420 197 69 99 987 3726 81 239 20 493 87 9910 223 71 38815 251 5915 118 13132 965 516 1358 98 20 57 187 21042 7774 55
internal_value=0.0192446 1440.69 -252.712 2645.94 1070.75 -407.257 169.201 3458.71 840.887 1459.89 2247.72 2260.74 -488.537 46.5662 3593.55 -250.249 399.784 707.057 747.3 996.077 1648.4 2084.63 2577.16 3826.06 310.377 2637.99 1670.61 1300.84 1936.95 1263.05 990.822 1011.21 1530.4 229.786 2113.08 1626.16 2149.18 3853.22 986.755 1780.73 1668.69 1698.22 2043.01 1249.15 329.267 477.881 1032.85 -524.925 1315.87 1340.53 1893.73 -25.5966 145.698 158.583 341.829 915.917 3334.78 3708.76 611.766 -297.353 683.72 809.715
internal_weight=289866 43261 246605 10160 33101 180492 66113 3341 20809 12292 6819 338 118926 43159 3003 61566 22954 10995 10140 2064 5625 4561 2258 1963 12743 2116 142 6667 254 170 9814 9313 419 855 4439 266 4173 1937 8894 216 5523 5197 590 326 12199 2289 294 80148 6544 6195 280 24977 18182 17217 1874 349 97 77 501 38900 8076 122
internal_count=289866 43261 246605 10160 33101 180492 66113 3341 20809 12292 6819 338 118926 43159 3003 61566 22954 10995 10140 2064 5625 4561 2258 1963 12743 2116 142 6667 254 170 9814 9313 419 855 4439 266 4173 1937 8894 216 5523 5197 590 326 12199 2289 294 80148 6544 6195 280 24977 18182 17217 1874 349 97 77 501 38900 8076 122
cat_boundaries=0 1 4 7 10 13 15 16 19 22
cat_threshold=1 1 41943040 2 2097441 0 2 2113857 0 32 51609600 21757952 16384 2097409 32768 2 2097217 41944064 2 16793889 12616768 2
is_linear=0
shrinkage=0.05


Tree=8
num_leaves=63
num_cat=6
split_feature=14 17 14 18 17 14 14 17 14 18 14 16 17 17 10 14 8 17 19 10 1 8 10 8 8 8 18 19 8 8 16 18 8 17 8 14 19 8 8 20 8 8 1 8 9 20 8 14 8 1 8 14 17 8 14 14 14 15 1 19 15 19
split_gain=3.81081e+13 6.76824e+12 6.02903e+12 1.19243e+12 1.00412e+12 8.89767e+11 6.88625e+11 1.64868e+11 1.42176e+11 1.34921e+11 1.32837e+11 1.31399e+11 1.19256e+11 1.08256e+11 9.631e+10 8.46301e+10 8.2428e+10 8.02618e+10 7.12483e+10 6.54893e+10 1.19915e+11 5.0982e+10 4.19849e+10 4.06784e+10 3.91445e+10 3.80802e+10 3.54146e+10 3.42471e+10 3.29267e+10 3.17881e+10 3.15527e+10 3.15057e+10 3.10521e+10 3.04225e+10 3.01188e+10 2.93915e+10 2.88117e+10 2.78163e+10 2.68356e+10 6.01814e+10 2.64743e+10 3.90409e+10 5.5104e+10 2.78038e+10 2.61434e+10 3.87133e+10 3.69572e+10 2.41927e+10 2.30509e+10 2.69896e+10 2.53202e+10 2.26589e+10 2.06902e+10 2.68497e+10 2.18298e+10 2.05133e+10 2.0205e+10 1.98492e+10 1.94237e+10 1.8945e+10 1.88295e+10 2.12564e+10
threshold=33604.090000000004 70238.007499999963 12890.925000000001 99590.099999999991 50397.778749999954 5560.9000000000005 23123.260000000002 41126.238749999982 74236.36500000002 83636.318125000005 2698.0650000000005 114293.49000000001 17401.332499999982 60212.644999999924 0.98182534576205305 9701.9850000000024 50.500000000000007 28427.243749999947 20390.706704846558 0.70581670320594814 0 49.500000000000007 0.98182534576205305 50.500000000000007 50.500000000000007 48.500000000000007 135247.49562500001 41693.850483144 50.500000000000007 50.500000000000007 23868.095000000005 55828.951249999991 49.500000000000007 92223.37749999993 50.500000000000007 65647.015000000014 13309.904711303048 48.500000000000007 45.500000000000007 1 50.500000000000007 45.500000000000007 2 46.500000000000007 -0.61559370248597534 3 48.500000000000007 45840.770000000011 45.500000000000007 4 50.500000000000007 977.98500000000013 92223.37749999993 50.500000000000007 141549.42500000002 19062.760000000006 70976.930000000008 26762.630000000001 5 7806.7430184409059 52037.700000000004 12343.766573357863
decision_type=2 2 2 2 2 2 2 2 2 2 2 2 2 2 2 2 2 2 2 2 9 2 2 2 2 2 2 2 2 2 2 2 2 2 2 2 2 2 2 1 2 2 9 2 2 1 2 2 2 9 2 2 2 2 2 2 2 2 9 2 2 2
left_child=2 4 5 9 7 10 12 16 -5 14 51 22 29 28 21 -7 19 23 -16 57 44 33 -10 25 38 -8 34 -24 32 37 -18 -26 58 -3 -13 -11 -30 -4 47 -40 41 -9 43 -43 45 -21 -46 -15 55 50 -50 -1 -37 -54 -55 -14 -22 -2 -6 -42 61 -34
right_child=1 3 6 8 13 15 17 40 11 35 -12 26 48 24 18 -17 30 -19 -20 20 56 -23 27 -25 31 -27 -28 -29 36 -31 -32 -33 60 -35 -36 52 -38 -39 39 -41 59 42 -44 -45 46 -47 -48 -49 49 -51 -52 -53 53 54 -56 -57 -58 -59 -60 -61 -62 -63
leaf_value=-519.85959701377988 309.39302282689596 1997.7545884965268 -13.644664675976996 1228.710903553904 470.10847203420991 -270.42067891428553 329.27777163890715 975.11021879539987 3050.8443015933135 1253.0570194166535 -387.66215716112242 3457.8283023704071 64.335723978651018 324.07357723390737 1832.4224380742723 -146.85275798060565 -87.328852869904779 518.26021882636746 456.71103044450285 1040.1050660705566 793.73158992364654 3027.0973365376012 2770.4310893397178 -6.5204905639550974 241.31558001258159 767.26860337670826 3808.3352094074298 946.48273814808238 1148.0145269846639 -251.05096151436965 505.77010680719189 1400.0102859150281 1846.8989070811172 2688.5575234286757 2311.8437804683563 2349.4708460498637 236.91093169933058 264.58364725844166 3199.9669634650736 1734.0146355232603 896.40892209520541 4209.5669270833341 1120.5591704844239 2206.5477669147531 1254.874573085619 3734.3112255859378 2403.6882561877769 1608.9279290668451 855.65502792586142 217.62340710627583 -251.89579777952099 -466.13103786487937 2735.2804334942557 2274.4842390471817 325.43029651641848 174.6275834040359 2024.0220055075254 700.01577979434421 1308.8109692771588 233.83020582556088 1467.3706469581241 3488.1272173713242
leaf_weight=48132 338 3995 20741 81 109 38878 11326 7385 1217 49 41112 762 7056 37 214 21530 392 9187 168 20 1807 131 62 866 88 519 1063 44 257 1357 524 176 47 166 62 1166 131 939 85 397 255 21 792 99 184 40 113 3732 335 2110 61 33130 903 51 20 10474 34 8596 5995 187 84 34
leaf_count=48132 338 3995 20741 81 109 38878 11326 7385 1217 49 41112 762 7056 37 214 21530 392 9187 168 20 1807 131 62 866 88 519 1063 44 257 1357 524 176 47 166 62 1166 131 939 85 397 255 21 792 99 184 40 113 3732 335 2110 61 33130 903 51 20 10474 34 8596 5995 187 84 34
internal_value=0.0228546 1390.56 -236.34 2515.1 1033.27 -383.394 177.366 827.802 3297.56 2139.89 -460.902 3349.77 61.3007 1415.56 1988.18 -226.38 707.875 405.664 1227.4 745.391 989.89 2055.89 2967.72 324.283 1604.55 348.469 3617.63 2013.32 1287.38 -16.2884 251.955 1013.78 1315.04 2025.31 3371.6 2463.84 840.4 -1.59409 1641.24 1992.53 993.138 1013.22 1321.86 2360.38 1832.94 2836.24 1691.97 1596.31 150.511 292.355 668.174 -497.955 2491.56 2661.67 1725.45 130.234 812.042 685.237 1296.75 616.087 1991.88 2535.81
internal_weight=289866 42113 247753 10154 31959 182782 64971 20787 3291 6863 122374 3210 43073 11172 4674 60408 12048 21898 382 11132 2198 4292 1323 12711 4515 11845 1887 106 6657 23037 916 264 6269 4161 824 2189 388 21680 4251 482 8739 8297 912 120 357 60 297 3769 20036 2506 396 81262 2140 974 71 17530 1841 8934 6104 442 165 81
internal_count=289866 42113 247753 10154 31959 182782 64971 20787 3291 6863 122374 3210 43073 11172 4674 60408 12048 21898 382 11132 2198 4292 1323 12711 4515 11845 1887 106 6657 23037 916 264 6269 4161 824 2189 388 21680 4251 482 8739 8297 912 120 357 60 297 3769 20036 2506 396 81262 2140 974 71 17530 1841 8934 6104 442 165 81
cat_boundaries=0 3 4 6 7 10 12
cat_threshold=16385 41943040 2 2 16385 41943040 1 8480 8422400 2 69206017 69206016
is_linear=0
shrinkage=0.05


Tree=9
num_leaves=63
num_cat=10
split_feature=14 17 14 17 17 14 14 20 17 17 10 17 17 17 14 17 10 1 20 10 10 14 15 10 1 9 19 14 1 14 8 17 8 1 14 16 10 10 20 10 14 8 8 1 8 10 8 16 19 19 8 20 18 8 14 14 17 14 14 8 1 14
split_gain=3.44097e+13 6.81901e+12 4.67571e+12 1.2444e+12 9.67462e+11 6.56301e+11 5.43168e+11 1.8297e+11 1.62093e+11 1.50765e+11 1.35083e+11 1.24488e+11 1.19029e+11 1.00706e+11 8.84365e+10 7.36275e+10 6.12875e+10 5.09298e+10 4.85033e+10 4.65736e+10 4.59756e+10 4.47252e+10 4.45577e+10 3.98267e+10 6.61281e+10 3.9808e+10 3.89766e+10 3.6306e+10 3.46251e+10 3.28163e+10 3.21326e+10 2.90676e+10 2.88269e+10 2.87231e+10 2.58685e+10 2.55314e+10 2.50108e+10 3.01672e+10 5.25658e+10 2.465e+10 2.43051e+10 2.77039e+10 4.53808e+10 7.96704e+10 2.80998e+10 2.40392e+10 3.35344e+10 4.27724e+10 2.94801e+10 2.36478e+10 2.34718e+10 4.01352e+10 2.2292e+10 2.22516e+10 2.22009e+10 2.20865e+10 2.19035e+10 2.16054e+10 2.05053e+10 1.93169e+10 2.54787e+10 1.82499e+10
threshold=30933.360000000004 67146.621249999967 10774.800000000001 101282.21999999993 45294.034999999923 18753.430000000004 3775.3950000000004 0 80354.623749999999 54770.167499999974 0.98182534576205305 22663.532499999917 35450.952499999934 113266.76124999997 6531.0600000000004 13549.716249999938 0.98182534576205305 1 2 0.98182534576205305 0.98182534576205305 1237.0100000000002 55134.275000000009 0.70581670320594814 3 -0.61559370248597534 14622.777763228063 25865.840000000004 4 93835.595000000016 38.500000000000007 92223.37749999993 13.500000000000002 5 65647.015000000014 139042.05500000002 0.98182534576205305 0.70581670320594814 6 0.78574730703237883 39713.55000000001 50.500000000000007 45.500000000000007 7 46.500000000000007 0.98182534576205305 48.500000000000007 50495.570000000007 12343.766573357863 9712.6733964944597 45.500000000000007 8 135247.49562500001 50.500000000000007 115279.36500000001 50848.735000000008 62354.393749999967 55442.960000000014 70976.930000000008 45.500000000000007 9 15429.670000000002
decision_type=2 2 2 2 2 2 2 1 2 2 2 2 2 2 2 2 2 9 1 2 2 2 2 2 9 2 2 2 9 2 2 2 2 9 2 2 2 2 1 2 2 2 2 9 2 2 2 2 2 2 2 1 2 2 2 2 2 2 2 2 9 2
left_child=2 4 6 8 12 15 21 13 20 36 22 28 16 -5 -8 53 23 -11 31 30 50 -1 -9 -2 25 -25 -22 -13 -7 40 34 -10 54 -30 -20 -12 37 -6 39 -39 -14 42 -42 44 -44 46 56 55 -47 -38 57 -52 -15 -4 -24 -48 -19 -3 -40 61 -61 -17
right_child=1 3 5 7 9 11 14 10 18 17 35 27 29 52 -16 59 -18 45 19 -21 26 -23 32 24 -26 -27 -28 -29 33 -31 -32 -33 -34 -35 -36 -37 49 38 58 -41 41 -43 43 -45 -46 48 47 -49 -50 -51 51 -53 -54 -55 -56 -57 -58 -59 -60 60 -62 -63
leaf_value=-490.46380383679372 529.15240900291417 828.73586862855052 -100.18170586555794 2874.2286057768265 1043.7969389626987 352.31081440722505 -335.72500514951344 1067.2092555190579 2205.7546023160057 279.59352502679468 577.88020790336066 275.10396350329961 707.4918232147761 3310.4651374204718 -223.85490585712355 -49.860773986817144 127.1168253443349 1339.3467106031803 509.75255789885654 769.82007801316013 1655.1436136179957 -422.73354219218822 1809.5837263080439 2509.8911193084718 582.11349509730996 1140.5802736356984 489.50685744989119 419.22607972092737 -173.47153607308866 2810.6536254882812 2620.9732957319779 2546.7895755030531 3333.7970226199127 142.86840587869219 1899.9493691580637 1810.9964259792018 989.42074014188495 3353.9888893127445 1142.1854382070428 1828.8838070609354 827.3675055551065 474.04410042499603 3988.8279715401786 957.57773700633743 2188.6401825229327 1294.176138264974 1676.7003168015253 1618.8948505772955 334.062631250084 260.00382940835794 3173.1140436458591 1942.8713720829296 3661.2288510101012 -336.71939089079456 3270.8958484184454 3614.7960349569512 1544.1037849682655 1793.0054760764867 2721.3415037609284 604.77588664994255 91.924068774179531 43.489147784273058
leaf_weight=53856 6440 59 16751 989 6139 1908 34323 33 1818 123 97 8110 5572 835 36403 9284 796 3899 37 88 174 44525 71 60 1233 460 122 9475 758 20 154 952 215 11669 350 74 293 32 974 154 5130 453 28 607 96 300 21 226 109 179 80 387 990 1057 41 49 1964 3768 21 257 2771 12007
leaf_count=53856 6440 59 16751 989 6139 1908 34323 33 1818 123 97 8110 5572 835 36403 9284 796 3899 37 88 174 44525 71 60 1233 460 122 9475 758 20 154 952 215 11669 350 74 293 32 974 154 5130 453 28 607 96 300 21 226 109 179 80 387 990 1057 41 49 1964 3768 21 257 2771 12007
internal_value=0.0270899 1242.93 -238.746 2310.25 901 92.5987 -383.832 3119.91 1971.24 1215.06 2268.62 263.607 683.315 3280.55 -278.145 -36.9757 545.973 1389.15 2232.96 1836.59 1777.43 -459.811 2818.25 586.668 797.962 1274.08 1174.71 352.759 154.242 787.008 2010.12 2322.96 2994.96 123.449 1767.04 1111.51 1065.57 1088.32 1319.74 2091.27 783.603 850.77 879.887 1248.46 2401.47 1407.36 1434.15 1953.4 1038.3 712.799 1818.98 2153.62 3500.74 -114.221 2344.53 3033.37 1407.94 1778.14 1175.51 19.5889 137.753 2.78365
internal_weight=289866 46712 243154 11334 35378 74047 169107 3345 7989 14483 531 31920 20895 2814 70726 42127 8989 6691 3399 629 4590 98381 360 8193 1753 520 296 17585 14335 11906 541 2770 327 12427 387 171 7792 7320 1181 186 11886 6314 5861 731 124 6568 6159 296 409 472 4294 467 1825 17808 112 70 5863 3827 995 24319 3028 21291
internal_count=289866 46712 243154 11334 35378 74047 169107 3345 7989 14483 531 31920 20895 2814 70726 42127 8989 6691 3399 629 4590 98381 360 8193 1753 520 296 17585 14335 11906 541 2770 327 12427 387 171 7792 7320 1181 186 11886 6314 5861 731 124 6568 6159 296 409 472 4294 467 1825 17808 112 70 5863 3827 995 24319 3028 21291
cat_boundaries=0 1 4 5 8 10 12 13 16 17 19
cat_threshold=1 2097409 0 2 1 1073758465 41944064 2 2097217 41944064 51550208 4980740 2 1 41944064 2 2 288 8422400
is_linear=0
shrinkage=0.05


Tree=10
num_leaves=63
num_cat=11
split_feature=14 17 14 17 17 14 14 10 17 17 17 17 20 14 14 17 10 1 20 10 10 14 10 1 19 14 8 1 8 14 14 9 20 14 15 14 17 8 8 1 16 1 7 8 14 15 17 8 20 14 8 8 8 1 8 13 15 20 10 8 17 8
split_gain=3.10607e+13 6.31138e+12 4.06255e+12 1.12442e+12 9.22818e+11 5.81116e+11 4.58033e+11 1.65945e+11 1.46379e+11 1.35838e+11 1.21347e+11 1.11851e+11 1.01912e+11 9.69809e+10 7.29111e+10 6.25025e+10 5.57035e+10 4.73224e+10 4.42811e+10 4.18258e+10 4.1404e+10 3.83903e+10 3.62338e+10 6.28752e+10 3.51764e+10 3.37055e+10 3.35484e+10 3.14649e+10 3.0333e+10 3.44408e+10 2.95481e+10 2.92502e+10 3.02497e+10 2.78763e+10 2.67334e+10 2.67053e+10 2.62335e+10 2.60842e+10 5.03017e+10 8.76485e+10 2.31926e+10 2.3013e+10 2.28152e+10 2.23808e+10 2.23597e+10 2.22326e+10 2.18559e+10 2.1271e+10 3.6222e+10 2.10477e+10 2.04488e+10 1.85677e+10 1.78999e+10 2.40835e+10 1.88962e+10 1.66445e+10 2.00025e+10 1.71948e+10 1.96666e+10 1.658e+10 1.65235e+10 1.61735e+10
threshold=30304.025000000005 67146.621249999967 10444.050000000001 101282.21999999993 45294.034999999923 18186.750000000004 3702.7300000000005 0.98182534576205305 80354.623749999999 54770.167499999974 34733.593750000007 22663.532499999917 0 115279.36500000001 6420.1600000000008 13349.342499999979 0.98182534576205305 1 2 0.98182534576205305 0.98182534576205305 1132.1950000000004 0.70581670320594814 3 14622.777763228063 93835.595000000016 50.500000000000007 4 49.500000000000007 74236.36500000002 38826.340000000004 -0.61559370248597534 5 70976.930000000008 114224.59500000002 25865.840000000004 92223.37749999993 50.500000000000007 45.500000000000007 6 101946.87000000001 7 10.066957562059743 49.500000000000007 43592.170000000006 93034.660000000018 62354.393749999967 45.500000000000007 8 58940.525000000001 50.500000000000007 45.500000000000007 45.500000000000007 9 50.500000000000007 0.25000000000000017 62640.30000000001 10 0.70581670320594814 46.500000000000007 51826.748749999904 49.500000000000007
decision_type=2 2 2 2 2 2 2 2 2 2 2 2 1 2 2 2 2 9 1 2 2 2 2 9 2 2 2 9 2 2 2 2 1 2 2 2 2 2 2 9 2 9 2 2 2 2 2 2 1 2 2 2 2 9 2 2 2 1 2 2 2 2
left_child=2 4 6 8 10 15 21 13 20 41 16 26 -9 33 -8 50 22 -11 36 28 47 -1 -2 31 -22 30 27 51 29 -20 -12 32 -24 -5 -15 -13 -10 38 -32 42 -14 -6 59 -29 -19 46 -46 49 -49 -3 61 -7 -17 54 -54 -31 -57 -58 -59 -40 -43 -4
right_child=1 3 5 7 9 11 14 12 18 17 25 35 40 34 -16 52 -18 44 19 -21 24 -23 23 -25 -26 -27 -28 43 -30 55 37 -33 -34 -35 -36 -37 -38 -39 39 -41 -42 60 -44 -45 45 -47 -48 48 -50 -51 -52 -53 53 -55 -56 56 57 58 -60 -61 -62 -63
leaf_value=-467.42267847362018 483.36630961099274 961.37219810879105 -110.18657328142095 1646.9566523143226 434.512754032185 323.90915573677739 -321.67423780414788 2789.8542468843007 2095.4668987009786 257.27252016779204 648.65612770896757 259.497608223947 283.85124046571792 2860.8264786546251 -219.28544176179741 -9.7565302316787026 104.05079007007805 528.14504261925106 998.36093242351819 731.32906799316413 1572.3864086633441 -404.47221445383741 581.32567291259772 518.50673534647626 465.03152644673332 2693.0978404651992 -125.00558557362565 124.88401638063888 3352.3970875459559 1775.9478014400499 774.89035814221324 1058.3237271270052 2799.4980191099876 2789.2417170589829 3397.3508259368837 386.40335659386301 2419.4499952300257 451.92271111507421 3353.8095439189187 839.31899392731111 1495.1002918068423 981.10257288949072 1220.7359433100773 517.48497379752973 1278.082774442965 2780.9576004593464 1473.1243964798596 3014.4583615875245 1845.727803138122 1707.4049598293161 -326.30343257163577 929.53703301021039 774.42244115046105 75.498367073130552 -348.37945020887588 1052.753223471208 2067.4625628972458 2478.0422270903719 4217.0692147090513 2156.1939673221473 1144.1134930198448 209.43577296127512
leaf_weight=51542 6445 97 17411 56 219 1318 34318 168 1818 124 5674 8225 62 274 35243 20353 812 84 104 88 174 45688 22 1190 122 22 1117 13547 34 257 5994 491 51 1155 1521 8358 952 500 37 632 109 5394 52 373 4303 27 2156 80 387 3732 1087 140 224 2590 45 22 59 37 29 132 2184 405
leaf_count=51542 6445 97 17411 56 219 1318 34318 168 1818 124 5674 8225 62 274 35243 20353 812 84 104 88 174 45688 22 1190 122 22 1117 13547 34 257 5994 491 51 1155 1521 8358 952 500 37 632 109 5394 52 373 4303 27 2156 80 387 3732 1087 140 224 2590 45 22 59 37 29 132 2184 405
internal_value=0.0306293 1163.58 -230.204 2194.23 843.85 74.9186 -367.759 2963.92 1872.08 1153.81 640.183 231.76 1915.22 3082.18 -269.799 -48.2682 499.078 1319.03 2120.76 1742.4 1687.95 -437.842 538.2 739.686 1115.98 737.668 139.572 158.79 1906.56 1809.79 734.364 1176.31 2131.01 2736.42 3315.45 323.459 2206.81 800.556 826.015 1185.26 1055.93 1011.97 2044.1 135.307 1336.64 1349.17 1343.19 1727.36 2045.94 1688.51 -115.766 379.46 6.69975 123.851 565.568 2018.67 2443.02 2687.7 3242.16 2418.39 1026.73 -102.921
internal_weight=289866 47882 241984 11337 36545 75193 166791 3345 7992 14491 22054 33078 339 3006 69561 42115 9011 6694 3400 630 4592 97230 8199 1754 296 13043 16495 15378 542 508 13021 564 73 1211 1795 16583 2770 7347 6847 853 171 7797 221 13920 6570 6486 6459 4296 467 3829 18903 1458 23212 2859 269 404 147 125 66 169 7578 17816
internal_count=289866 47882 241984 11337 36545 75193 166791 3345 7992 14491 22054 33078 339 3006 69561 42115 9011 6694 3400 630 4592 97230 8199 1754 296 13043 16495 15378 542 508 13021 564 73 1211 1795 16583 2770 7347 6847 853 171 7797 221 13920 6570 6486 6459 4296 467 3829 18903 1458 23212 2859 269 404 147 125 66 169 7578 17816
cat_boundaries=0 1 4 5 8 10 11 14 17 18 20 21
cat_threshold=1 2097409 0 2 1 1073758465 41944128 2 2097217 8388608 1 16385 41944128 2 2097413 67141632 2 2 288 8946688 4
is_linear=0
shrinkage=0.05


Tree=11
num_leaves=63
num_cat=7
split_feature=14 17 14 18 17 17 14 17 14 17 17 16 14 10 17 14 19 10 17 1 10 14 19 8 10 1 8 14 14 15 8 8 8 1 7 19 10 8 1 10 1 10 8 16 19 19 19 7 8 14 8 8 14 1 16 16 9 8 8 8 1 16
split_gain=2.80332e+13 5.69577e+12 3.66646e+12 1.01609e+12 8.32819e+11 5.27428e+11 4.13513e+11 1.35311e+11 1.30382e+11 1.22586e+11 1.09718e+11 9.98258e+10 9.40381e+10 8.3901e+10 7.81942e+10 7.31367e+10 6.02194e+10 4.72551e+10 4.27037e+10 4.26047e+10 3.68331e+10 3.48295e+10 3.16396e+10 3.15134e+10 3.14332e+10 2.96771e+10 4.22575e+10 2.93229e+10 2.8658e+10 2.82393e+10 2.64568e+10 2.60934e+10 4.43134e+10 7.42781e+10 2.38147e+10 2.32858e+10 2.26987e+10 2.76749e+10 4.61712e+10 2.25961e+10 3.40384e+10 2.18072e+10 3.04825e+10 2.90485e+10 2.66925e+10 2.16208e+10 2.05673e+10 2.43157e+10 2.05378e+10 2.04814e+10 1.99111e+10 1.98756e+10 1.93011e+10 1.7671e+10 1.7315e+10 1.73092e+10 1.66237e+10 1.65879e+10 1.64609e+10 4.64276e+10 5.88304e+10 1.58114e+10
threshold=30304.025000000005 67146.621249999967 10444.050000000001 99590.099999999991 45294.034999999923 19012.921249999916 3475.3500000000004 80354.623749999999 70976.930000000008 54770.167499999974 34076.953749999891 114293.49000000001 23562.260000000006 0.98182534576205305 14376.322499999902 6531.0600000000004 20390.706704846558 0.98182534576205305 92223.37749999993 0 0.98182534576205305 39713.55000000001 14622.777763228063 48.500000000000007 0.98182534576205305 1 45.500000000000007 1078.8850000000002 93835.595000000016 114224.59500000002 50.500000000000007 50.500000000000007 45.500000000000007 2 10.066957562059743 41693.850483144 0.98182534576205305 45.500000000000007 3 0.70581670320594814 4 0.98182534576205305 49.500000000000007 51823.950000000004 12343.766573357863 14622.777763228063 6170.125083444239 9.7133815909018111 50.500000000000007 16143.425000000001 48.500000000000007 49.500000000000007 60954.875000000007 5 56690.450000000004 21087.455000000005 1.0000000180025095e-35 46.500000000000007 50.500000000000007 45.500000000000007 6 40249.090000000004
decision_type=2 2 2 2 2 2 2 2 2 2 2 2 2 2 2 2 2 2 2 9 2 2 2 2 2 9 2 2 2 2 2 2 2 9 2 2 2 2 9 2 9 2 2 2 2 2 2 2 2 2 2 2 2 9 2 2 2 2 2 2 9 2
left_child=2 4 6 7 10 14 27 20 -5 36 17 24 49 18 30 -8 -15 23 -9 -11 50 -12 -22 25 -10 26 -2 -1 31 -13 39 32 -23 34 57 -26 37 -6 46 -4 -41 42 52 -44 -43 -38 -39 -48 -31 -7 -3 -20 -21 -25 -52 -28 -18 -34 59 -14 -61 -54
right_child=1 3 5 8 9 12 15 13 11 19 21 29 58 16 -16 -17 56 -19 51 41 22 28 -24 53 35 -27 55 -29 -30 48 -32 -33 33 -35 -36 -37 45 38 -40 40 -42 44 43 -45 -46 -47 47 -49 -50 -51 54 -53 61 -55 -56 -57 -58 -59 -60 60 -62 -63
leaf_value=-444.7368967250199 627.81609459142408 1615.8290840583286 -105.39608259205343 866.26903212214097 948.80423850576904 -48.597938272789484 -306.96802938514162 1959.6593268289944 2613.0637579624949 245.3688620414307 618.83805308428532 2685.2619115317739 308.45534121860152 1893.4492948379987 36.090464965212576 -206.63148650601744 1025.9366682104162 92.133638029523723 2296.5611416314637 1199.2214411205218 1493.7671369881466 746.7511016141176 441.00830042647925 1503.8403849625788 2339.8383852066536 430.23635384947943 999.35035755391027 -388.67876635724235 2538.5274700662367 3244.0734390415882 -305.14408905728391 416.44676840058014 3270.7133151584203 799.93058597324614 1056.3963854153951 835.84511815851386 844.88649854688674 1327.7959791917067 965.25942449889737 311.42517657430795 -47.637411097266437 1162.9424908803305 3191.7299560546876 1595.4475050541394 252.40142131458629 104.34423098564149 2757.2760314941406 1351.0246540416372 2516.792810704158 166.65951918730909 3088.7061266447372 3263.580439104353 1924.195495124877 631.47162714492617 1901.4003915405274 2286.1489562988281 -37.50749796514642 2057.8927647986779 74.682644872260255 1361.7428252363627 460.41085412458506 1352.1643659002132
leaf_weight=50407 936 4075 19253 83 6514 1199 38874 2062 1224 124 7493 328 12214 163 20838 34087 74 785 1039 3406 174 5267 121 109 62 5834 49 43423 23 1457 1416 482 36 562 48 44 333 78 586 812 3342 300 38 114 110 140 102 44 104 14103 38 56 127 244 160 56 73 130 612 216 1188 2475
leaf_count=50407 936 4075 19253 83 6514 1199 38874 2062 1224 124 7493 328 12214 163 20838 34087 74 785 1039 3406 174 5267 121 109 62 5834 49 43423 23 1457 1416 482 36 562 48 44 333 78 586 812 3342 300 38 114 110 140 102 44 104 14103 38 56 127 244 160 56 73 130 612 216 1188 2475
internal_value=0.0327644 1105.42 -218.693 2084.52 801.685 71.1732 -349.371 1781.07 2822.91 1096.14 608.205 2873.37 235.834 2016.59 -35.3236 -260.091 1231.66 460.577 2093.67 1253.1 1602.32 692.454 1061.96 500.592 2541.53 476.935 727.525 -418.794 776.694 3107 -95.2731 770.483 798.722 1151.47 1946.33 1715.54 961.397 983.078 1258.7 -82.577 23.1851 1269.81 1295.24 1994.52 918.651 625.699 1898.53 2333.47 3195.62 149.793 1639.62 2346.02 1277.55 961.334 2129.27 1685.64 497.832 2320.91 328.356 339.756 612.056 1380.08
internal_weight=289866 47882 241984 11337 36545 75193 166791 8035 3302 14491 22054 3219 29532 3467 45661 72961 310 8013 3157 6694 4568 14041 295 7228 1330 6875 1041 93830 6548 1889 24823 6525 6043 776 214 106 7797 7324 810 23407 4154 6570 6160 152 410 473 224 146 1561 15302 4273 1095 6008 353 198 105 147 166 14230 13618 1404 2602
internal_count=289866 47882 241984 11337 36545 75193 166791 8035 3302 14491 22054 3219 29532 3467 45661 72961 310 8013 3157 6694 4568 14041 295 7228 1330 6875 1041 93830 6548 1889 24823 6525 6043 776 214 106 7797 7324 810 23407 4154 6570 6160 152 410 473 224 146 1561 15302 4273 1095 6008 353 198 105 147 166 14230 13618 1404 2602
cat_boundaries=0 3 5 8 10 13 16 18
cat_threshold=2097409 0 2 1075839296 41943040 16385 41944128 2 17441 41944064 16777505 12616704 2 16387 64 2 289 8422400
is_linear=0
shrinkage=0.05


Tree=12
num_leaves=63
num_cat=9
split_feature=14 17 14 17 18 14 17 17 14 14 16 17 17 8 17 14 17 8 19 8 1 8 14 1 10 9 10 8 1 8 18 19 18 8 8 20 8 8 10 1 19 17 8 8 8 16 19 1 19 16 1 8 16 15 1 2 14 15 14 8 20 19
split_gain=2.53087e+13 4.51382e+12 4.01478e+12 8.06147e+11 6.58026e+11 5.91243e+11 4.61005e+11 1.32587e+11 9.93573e+10 9.12391e+10 8.97071e+10 8.51296e+10 8.25934e+10 7.78021e+10 7.83854e+10 6.37119e+10 6.0041e+10 5.67284e+10 5.12007e+10 4.77832e+10 3.49736e+10 3.28533e+10 3.35893e+10 3.22779e+10 5.88087e+10 4.87642e+10 2.97669e+10 2.85799e+10 2.70966e+10 2.62705e+10 2.57448e+10 2.55842e+10 2.51708e+10 2.26609e+10 2.26511e+10 5.08611e+10 2.18216e+10 3.32403e+10 1.98626e+10 3.51458e+10 1.98209e+10 1.95678e+10 1.88887e+10 1.87768e+10 2.94297e+10 4.46865e+10 1.88905e+10 1.8492e+10 1.80854e+10 1.80124e+10 1.80094e+10 1.91861e+10 1.79532e+10 2.8896e+10 1.78488e+10 1.73725e+10 1.73716e+10 1.83801e+10 1.67052e+10 1.66573e+10 1.98936e+10 1.64876e+10
threshold=33604.090000000004 73598.216249999954 12890.925000000001 51826.748749999904 99590.099999999991 4821.9450000000006 21541.562499999945 41126.238749999982 77631.790000000023 26356.175000000003 114293.49000000001 8406.9449999999379 62354.393749999967 50.500000000000007 84907.731249999997 2056.0250000000005 16175.14541666657 50.500000000000007 23811.573216760651 49.500000000000007 0 49.500000000000007 55442.960000000014 1 0.70581670320594814 -0.61559370248597534 0.98182534576205305 50.500000000000007 2 50.500000000000007 135247.49562500001 6363.8244280892732 59678.930625000001 50.500000000000007 45.500000000000007 3 50.500000000000007 49.500000000000007 0.70581670320594814 4 41693.850483144 30837.096249999991 42.500000000000007 50.500000000000007 48.500000000000007 35328.555000000008 13309.904711303048 5 7806.7430184409059 39341.37000000001 6 50.500000000000007 22194.225000000002 53579.995000000003 7 1.0000000180025095e-35 45840.770000000011 22666.205000000005 52246.015000000007 42.500000000000007 8 41693.850483144
decision_type=2 2 2 2 2 2 2 2 2 2 2 2 2 2 2 2 2 2 2 2 9 2 2 9 2 2 2 2 9 2 2 2 2 2 2 1 2 2 2 9 2 2 2 2 2 2 2 9 2 2 9 2 2 2 9 2 2 2 2 2 1 2
left_child=2 3 5 7 13 15 16 17 -6 42 27 -7 20 14 -3 -1 29 19 -15 23 -5 22 -16 24 -2 -26 34 -10 -21 38 33 -19 -28 -12 58 -36 37 56 -4 -40 -29 -11 47 44 -22 -46 -45 -8 -38 -39 51 -44 -24 -54 -18 -20 -9 -58 -14 60 -55 -60
right_child=1 4 6 12 8 11 9 36 10 41 30 -13 26 18 21 -17 54 31 55 28 43 -23 52 -25 25 -27 32 40 -30 -31 -32 -33 -34 -35 35 -37 48 49 39 -41 -42 -43 50 46 45 -47 -48 -49 -50 -51 -52 -53 53 59 -56 -57 57 -59 61 -61 -62 -63
leaf_value=-412.60560907874208 665.18693379432932 1695.384493831785 -40.634730773397315 186.9897514744809 937.8302803908723 -249.88418623136374 -175.64952294312675 753.89293428854717 2479.676500937564 351.96405665552601 2818.9928315570664 -139.06803130968805 468.8227655747358 1629.9203614438316 225.03030075073244 -335.41850854333779 251.85586442272779 488.05801562710087 925.77163598330117 1907.2268869850855 1108.4229679965949 3055.4626069568458 2672.9822812836746 557.32022563236853 3136.2935058593753 1230.7581165952547 206.63321921618092 2200.3711275540868 760.72970210887775 -255.16141385600045 3116.6422574318062 -42.889143658254255 1192.861494746777 1824.9645885836694 2798.5372882717261 1476.2158839104586 755.71205421632555 2014.9404236198877 383.686383065055 2.1621714921293811 709.23269543770039 477.28600048298944 784.56906714347951 984.21816281940937 3238.8756149704395 1387.2352557954337 169.20876102739453 197.63387585288913 144.30268995761872 1090.9607149631856 272.8415334934009 -259.80464450073242 187.81793759663901 1366.2241251627604 80.293766860873788 -92.129263870437427 2086.1825149536135 883.77454496561336 1369.504494648193 2377.2516136052777 2036.3616772664955 2444.7712022569444
leaf_weight=69906 868 3223 13720 123 79 36934 338 4420 1227 8044 762 32652 51 211 25 43290 1644 414 92 100 5896 84 116 9709 40 209 92 52 206 1214 1062 502 218 62 91 362 289 85 794 2433 39 5083 365 259 37 273 98 10386 208 139 1834 50 21 120 19066 77 32 4670 3671 327 1436 36
leaf_count=69906 868 3223 13720 123 79 36934 338 4420 1227 8044 762 32652 51 211 25 43290 1644 414 92 100 5896 84 116 9709 40 209 92 52 206 1214 1062 502 218 62 91 362 289 85 794 2433 39 5083 365 259 37 273 98 10386 208 139 1834 50 21 120 19066 77 32 4670 3671 327 1436 36
internal_value=0.0426191 1133.24 -192.579 863.088 2125.11 -312.58 145.018 686.529 2689.56 307.556 2732.75 -197.886 1207.97 1801.82 1850.9 -383.087 35.8814 575.307 1110.5 606.429 1096.35 2086.34 2046.53 589.013 851.874 1536.87 1373.03 2416.27 1222.59 -30.4779 2953.92 197.08 900.174 2744.2 1407.84 1741.85 822.668 839.836 -14.3826 97.2315 1561.31 400.491 213.518 1111.41 1133.39 1608.24 760.49 185.889 499.83 1441.58 345.263 643.241 2069.08 2032.28 94.0731 461.994 825.059 891.958 1367.58 2052.85 1984.68 1379.95
internal_weight=289866 42113 247753 33098 9015 182782 64971 21891 3283 26100 3204 69586 11207 5732 5352 113196 38871 12048 380 11132 6686 2129 2045 10826 1117 249 4521 1318 306 18161 1886 916 310 824 4211 453 9843 9346 16947 3227 91 13127 12973 6563 6206 310 357 10724 497 224 2249 415 2020 1904 20710 169 9122 4702 3758 1883 1556 3707
internal_count=289866 42113 247753 33098 9015 182782 64971 21891 3283 26100 3204 69586 11207 5732 5352 113196 38871 12048 380 11132 6686 2129 2045 10826 1117 249 4521 1318 306 18161 1886 916 310 824 4211 453 9843 9346 16947 3227 91 13127 12973 6563 6206 310 357 10724 497 224 2249 415 2020 1904 20710 169 9122 4702 3758 1883 1556 3707
cat_boundaries=0 3 5 8 9 12 15 18 20 21
cat_threshold=2097409 0 2 2097408 41943040 17409 8388672 2 2 16777505 12616768 2 2097408 4292608 16384 16672 8422400 2 2097409 8388608 2
is_linear=0
shrinkage=0.05


Tree=13
num_leaves=63
num_cat=10
split_feature=14 14 17 17 17 14 14 10 17 14 20 17 17 17 17 17 18 8 10 1 8 14 8 8 1 1 9 8 8 15 19 16 8 16 8 8 8 20 18 14 8 1 8 8 8 18 19 15 16 1 8 14 14 8 8 1 14 1 20 8 19 10
split_gain=2.28425e+13 3.91263e+12 3.83647e+12 6.418e+11 5.94263e+11 5.91146e+11 4.40628e+11 1.22409e+11 9.28316e+10 9.18219e+10 7.66733e+10 7.44154e+10 7.22128e+10 6.54037e+10 6.08564e+10 5.83272e+10 5.38801e+10 5.26951e+10 4.64935e+10 9.50891e+10 3.94074e+10 3.26715e+10 3.21999e+10 3.37609e+10 5.86052e+10 3.05768e+10 2.93539e+10 2.7137e+10 2.70053e+10 2.68488e+10 2.43426e+10 2.42093e+10 2.23017e+10 2.19498e+10 2.15333e+10 2.07373e+10 2.05893e+10 4.59021e+10 1.97054e+10 1.92483e+10 1.92201e+10 2.40072e+10 1.97149e+10 1.70751e+10 2.6491e+10 2.7411e+10 1.70487e+10 1.69257e+10 1.69181e+10 1.66743e+10 2.27473e+10 1.63706e+10 1.61934e+10 1.60529e+10 2.67879e+10 1.58733e+10 1.52901e+10 1.52337e+10 1.51836e+10 2.11813e+10 1.48589e+10 1.42966e+10
threshold=34972.145000000011 13492.580000000002 73598.216249999954 51826.748749999904 101282.21999999993 5865.8300000000008 23562.260000000006 0.98182534576205305 42073.433749999916 2830.7900000000004 0 62354.393749999967 113266.76124999997 17648.402499999964 29588.927499999958 9472.5612499999279 83636.318125000005 50.500000000000007 0.70581670320594814 1 50.500000000000007 65647.015000000014 50.500000000000007 45.500000000000007 2 3 -0.61559370248597534 49.500000000000007 50.500000000000007 65093.785000000011 20390.706704846558 25651.945000000003 50.500000000000007 13604.530000000001 49.500000000000007 48.500000000000007 45.500000000000007 4 59678.930625000001 57120.480000000003 45.500000000000007 5 50.500000000000007 50.500000000000007 49.500000000000007 43673.67437500001 13309.904711303048 28378.360000000004 139042.05500000002 6 45.500000000000007 52246.015000000007 598.74500000000012 50.500000000000007 49.500000000000007 7 65647.015000000014 8 9 46.500000000000007 41693.850483144 0.40966402954315179
decision_type=2 2 2 2 2 2 2 2 2 2 1 2 2 2 2 2 2 2 2 9 2 2 2 2 9 9 2 2 2 2 2 2 2 2 2 2 2 1 2 2 2 9 2 2 2 2 2 2 2 9 2 2 2 2 2 9 2 9 1 2 2 2
left_child=1 5 3 8 16 9 13 12 17 52 -9 25 -6 32 22 -7 20 18 47 26 27 -18 23 55 33 -5 -20 39 36 -14 -22 -19 34 -25 49 -28 51 -38 -30 -4 -15 42 -42 44 -27 -46 -45 -2 -12 50 -3 -13 -1 54 -10 -8 -21 -24 59 -35 -53 -41
right_child=2 6 4 11 7 15 14 10 53 -11 48 28 29 40 -16 -17 21 31 19 56 30 -23 57 24 -26 43 35 -29 38 -31 -32 -33 -34 58 -36 -37 37 -39 -40 61 41 -43 -44 46 45 -47 -48 -49 -50 -51 -52 60 -54 -55 -56 -57 -58 -59 -60 -61 -62 -63
leaf_value=-409.13987730637473 229.96730489167641 71.575580814512222 588.74657287597654 179.66751758868878 2313.7114217308422 -208.40494113815467 -126.21846840046072 2402.2142435709638 797.6740174178891 -294.5582651168354 452.31380451001627 498.87055326189312 1578.6142426990327 108.0456942707857 434.77117349823942 -109.5643262807113 660.26394805908205 -84.097989611230318 3038.6847412109378 655.42393029670757 1408.6578662473767 1928.3291810835435 -221.60187880092315 185.46512813568117 314.91832898200829 1061.3595398500752 1179.8640053082231 2440.7893603515627 212.27267887539335 2856.5369351531494 389.19130424868604 447.41567085200342 -201.43039573016375 2299.2793579101562 346.98171600760043 2198.6092956542971 2658.61041504577 1402.4050921529697 1129.1197084517705 1549.7022994442827 682.87118836610216 172.84048455552954 -206.89929768244426 935.00725623024016 3312.7361285665766 1445.3685426161026 160.74832080529663 571.47006831332214 1460.6646435782716 -16.265759635011957 588.09301358018899 1301.799852442053 -364.91676143245724 500.73405517266059 1389.2472255551086 268.32385790626165 1425.462140894648 176.62065936291572 903.99506681037678 1091.7487970435102 2322.532652452257 1788.1979341509109
leaf_weight=37908 381 3081 46 120 1039 33440 260 168 8091 42281 95 63 42 17428 9235 26959 52 398 40 1704 134 2193 448 64 1165 6039 133 100 90 1921 104 464 1288 60 472 80 91 362 168 2155 460 1988 72 259 23 135 98 7606 74 15809 229 3705 45603 437 196 11035 67 495 198 92 36 887
leaf_count=37908 381 3081 46 120 1039 33440 260 168 8091 42281 95 63 42 17428 9235 26959 52 398 40 1704 134 2193 448 64 1165 6039 133 100 90 1921 104 464 1288 60 472 80 91 362 168 2155 460 1988 72 259 23 135 98 7606 74 15809 229 3705 45603 437 196 11035 67 495 198 92 36 887
internal_value=0.0481201 -177.017 1112.69 847.103 2020.15 -292.861 160.639 2549.35 674.601 -354.595 1645.79 1149.23 2650.78 61.964 335.401 -164.288 1708.57 577.123 609.422 823.472 1583.81 1898.96 268.984 289.642 506.199 1043.17 1727.6 1630.14 1306 2829.19 963.177 202.007 0.106453 1012.4 13.3564 1562.49 1336.11 1654.76 809.289 1603.89 126.708 255.777 552.074 1057.1 1078.08 1717.2 722.466 555.18 893.84 5.12002 106.987 1298.16 -384.991 796.091 811.666 259.368 680.712 -13.0437 1192.54 1568.41 1311.62 1619.24
internal_weight=289866 250070 39796 30786 9010 186191 63879 3339 19597 125792 337 11189 3002 40827 23052 60399 5671 10873 10011 2024 3426 2245 13817 12874 1579 6674 253 3188 4515 1963 238 862 20879 414 19591 213 4257 453 258 3088 19948 2520 532 6554 6197 158 357 7987 169 19119 3310 3804 83511 8724 8287 11295 1771 943 350 152 3741 3042
internal_count=289866 250070 39796 30786 9010 186191 63879 3339 19597 125792 337 11189 3002 40827 23052 60399 5671 10873 10011 2024 3426 2245 13817 12874 1579 6674 253 3188 4515 1963 238 862 20879 414 19591 213 4257 453 258 3088 19948 2520 532 6554 6197 158 357 7987 169 19119 3310 3804 83511 8724 8287 11295 1771 943 350 152 3741 3042
cat_boundaries=0 1 4 7 10 11 14 16 18 21 22
cat_threshold=1 1 41943040 2 289 8389696 2 2097409 0 2 2 24864 8422464 2 2097473 42042368 16810240 4292608 118743205 5013504 32 2
is_linear=0
shrinkage=0.05


Tree=14
num_leaves=63
num_cat=11
split_feature=14 17 14 18 17 14 14 17 17 17 1 20 17 17 14 17 10 17 9 19 10 8 1 1 8 14 1 10 9 1 3 10 10 8 20 8 1 10 10 20 9 14 19 1 10 8 9 14 16 15 14 19 8 1 15 17 8 14 8 8 16 14
split_gain=2.0625e+13 4.19404e+12 2.70515e+12 8.56049e+11 5.24791e+11 4.03034e+11 2.95737e+11 1.53754e+11 9.22999e+10 7.45658e+10 7.41281e+10 6.69799e+10 6.69273e+10 6.29999e+10 5.6392e+10 4.85171e+10 4.5878e+10 4.43979e+10 4.36729e+10 3.90579e+10 3.55677e+10 3.30018e+10 3.12872e+10 2.7108e+10 2.64792e+10 2.4862e+10 2.37943e+10 2.571e+10 4.15744e+10 2.33152e+10 2.19547e+10 2.06112e+10 1.95517e+10 2.46802e+10 5.01851e+10 1.95182e+10 2.83641e+10 1.89511e+10 2.54226e+10 5.0034e+10 5.49785e+10 2.13083e+10 1.97555e+10 1.81679e+10 6.56851e+10 2.97208e+10 1.97398e+10 1.7616e+10 1.69498e+10 3.00428e+10 1.78538e+10 1.66829e+10 1.66607e+10 2.37646e+10 1.58474e+10 1.5846e+10 1.57483e+10 1.55233e+10 1.50392e+10 2.19489e+10 2.06692e+10 1.50224e+10
threshold=30304.025000000005 64631.204999999994 10300.750000000002 90840.428750000006 43059.858749999992 18186.750000000004 3625.5150000000008 113266.76124999997 53232.242499999913 22663.532499999917 0 1 76714.160000000003 34076.953749999891 65647.015000000014 6278.5762499999037 0.98182534576205305 12752.826249999956 -0.17992617227144048 23811.573216760651 0.98182534576205305 49.500000000000007 2 3 49.500000000000007 1568.9450000000004 4 0.70581670320594814 -0.61559370248597534 5 52.485000000000007 -0.70581670320594803 0.98182534576205305 45.500000000000007 6 42.500000000000007 7 0.98182534576205305 0.70581670320594814 8 -0.61559370248597534 70976.930000000008 9251.0357698636562 9 0.70581670320594814 50.500000000000007 -0.61559370248597534 43592.170000000006 22194.225000000002 56846.380000000012 115279.36500000001 14622.777763228063 45.500000000000007 10 93034.660000000018 138067.54625000004 47.500000000000007 25374.450000000004 50.500000000000007 49.500000000000007 50495.570000000007 103113.06500000002
decision_type=2 2 2 2 2 2 2 2 2 2 9 1 2 2 2 2 2 2 2 2 2 2 9 9 2 2 9 2 2 9 2 2 2 2 1 2 9 2 2 1 2 2 2 9 2 2 2 2 2 2 2 2 2 9 2 2 2 2 2 2 2 2
left_child=2 4 6 10 13 17 25 14 37 23 31 55 32 20 -5 -8 21 -4 -13 -18 24 48 -10 -7 26 -1 27 -2 -29 -25 -20 -3 33 -12 -35 57 -37 38 -6 40 -40 -41 -39 44 -15 46 -46 -24 61 -50 -51 -34 -19 56 58 -9 -54 -11 59 -49 -61 -14
right_child=1 3 5 7 8 9 15 11 22 35 12 18 16 43 -16 -17 19 52 30 -21 -22 -23 47 29 -26 -27 -28 28 -30 -31 -32 -33 51 34 -36 36 -38 42 39 41 -42 -43 -44 -45 45 -47 -48 54 49 50 -52 -53 53 -55 -56 -57 -58 -59 -60 60 -62 -63
leaf_value=-377.25823219067701 483.26345028014896 975.93457989609033 -105.11501983525392 582.60925650525451 763.12334863640638 315.54343523010539 -265.66743450387514 2566.9142489704982 185.8420023110466 179.53124939325897 1308.2430157848157 2655.0382021859978 1713.7868160932494 614.34652991348173 2055.0516136798879 -182.10855409541909 1507.7449708402828 -16.14810955392154 1174.7323050479761 357.30019088245575 72.840166221120555 2498.1240852029914 414.23855579621204 -207.76695669747951 988.75802957170151 -324.55055666415819 361.15765217110197 2327.8005555444834 751.55337496137281 107.08533445308416 2404.3024261474611 -250.10083519802538 1205.7446904962715 2749.2399917770217 1434.2629629124476 722.28855214313398 307.17440508174747 732.22613842055785 4001.0583389945659 834.98874873452485 1419.0818008192821 2481.8732238769535 110.69171015776476 553.14323445114087 3296.6392659505213 150.64662810105546 1722.4654426248665 1053.64242084188 160.19237439836775 1618.5722764875202 2645.1655069040698 391.76741006033762 1214.2304119873047 71.658050535611096 2394.8838351162999 2862.9837930970275 244.93630265322599 287.23285301909499 730.45841378203738 2671.1519290321753 1326.1057426120924 2751.8702233692957
leaf_weight=60690 1128 57 16856 67 6996 1521 33611 867 128 6022 3703 130 78 805 2206 35956 178 23095 149 126 785 117 109 605 204 35437 5561 49 286 14369 48 86 176 91 358 505 2528 337 23 1094 199 20 206 10890 24 26 117 5943 35 2810 43 98 80 3093 22 944 88 7528 347 38 115 63
leaf_count=60690 1128 57 16856 67 6996 1521 33611 867 128 6022 3703 130 78 805 2206 35956 178 23095 149 126 785 117 109 605 204 35437 5561 49 286 14369 48 86 176 91 358 505 2528 337 23 1094 199 20 206 10890 24 26 117 5943 35 2810 43 98 80 3093 22 944 88 7528 347 38 115 63
internal_value=0.0470043 948.193 -187.565 1738.48 671.106 58.8072 -301.002 2297.95 888.404 190.16 1430.73 2602.32 1450.54 500.8 2011.65 -222.48 1617.47 -41.741 1943.72 1030.92 392.49 1674.15 1028.46 114.889 427.206 -357.828 410.896 593.434 982.109 94.2341 1474.32 223.004 1323.7 1350.69 1700.77 265.031 379.686 782.638 801.29 1001.15 1686.58 864.556 496.432 573.965 793.395 1703.98 1990.41 1043 1642.32 1616.18 1634.04 914.614 -1.21008 104.584 1055.21 2721.24 666.814 239.367 1050.64 1068.87 1660.17 2177.61
internal_weight=289866 47882 241984 12430 35452 76290 165694 4411 15577 33078 8019 2138 7876 19875 2273 69567 3450 43212 327 304 8013 3146 6702 16495 7228 96127 7024 1463 335 14974 197 143 4426 4152 449 16583 3033 8875 8332 1336 222 1114 543 11862 972 167 141 6574 3029 2888 2853 274 26356 3261 6465 1811 168 13550 6443 6096 153 141
internal_count=289866 47882 241984 12430 35452 76290 165694 4411 15577 33078 8019 2138 7876 19875 2273 69567 3450 43212 327 304 8013 3146 6702 16495 7228 96127 7024 1463 335 14974 197 143 4426 4152 449 16583 3033 8875 8332 1336 222 1114 543 11862 972 167 141 6574 3029 2888 2853 274 26356 3261 6465 1811 168 13550 6443 6096 153 141
cat_boundaries=0 1 2 5 7 9 11 12 15 16 19 21
cat_threshold=2097473 1 2097409 0 2 2097217 8388608 1075840320 41944064 34641920 21757956 2 16416 41976832 2 2 2097152 41943040 2 16777504 8388608
is_linear=0
shrinkage=0.05


Tree=15
num_leaves=63
num_cat=8
split_feature=14 17 14 17 17 14 17 10 17 14 14 20 17 14 17 17 8 17 10 1 1 8 8 10 15 19 19 10 10 15 14 8 20 8 1 8 18 8 8 19 1 16 14 15 10 1 16 14 1 19 15 14 15 10 16 8 19 14 14 8 14 8
split_gain=1.86174e+13 3.22129e+12 3.07342e+12 5.5747e+11 4.89158e+11 4.6661e+11 3.45619e+11 1.02726e+11 8.67781e+10 7.63655e+10 7.20964e+10 6.21602e+10 6.06915e+10 5.955e+10 4.68002e+10 4.45606e+10 4.28661e+10 3.91426e+10 3.80242e+10 7.31282e+10 2.51144e+10 2.37129e+10 2.188e+10 2.16269e+10 2.07707e+10 2.03663e+10 2.02559e+10 1.99533e+10 2.61679e+10 1.94697e+10 1.87308e+10 1.69859e+10 3.80015e+10 1.65998e+10 1.86429e+10 2.63441e+10 1.64504e+10 1.58743e+10 2.62298e+10 1.58425e+10 1.55482e+10 1.54439e+10 1.53129e+10 1.52687e+10 1.5248e+10 2.94684e+10 1.49766e+10 1.44572e+10 1.4443e+10 1.44306e+10 1.43617e+10 1.43111e+10 1.73998e+10 1.38546e+10 2.29869e+10 2.88522e+10 1.82826e+10 1.59553e+10 1.37592e+10 1.39089e+10 1.36381e+10 1.35798e+10
threshold=34283.05000000001 73598.216249999954 13286.735000000002 51826.748749999904 101282.21999999993 5764.3300000000008 21541.562499999945 0.98182534576205305 41126.238749999982 27407.175000000003 2698.0650000000005 0 62354.393749999967 115279.36500000001 9339.1574999998938 84907.731249999997 50.500000000000007 16175.14541666657 0.70581670320594814 1 2 50.500000000000007 50.500000000000007 0.98182534576205305 28378.360000000004 13309.904711303048 7500.6752978200811 0.98182534576205305 0.29696027566504679 81332.37000000001 55442.960000000014 45.500000000000007 3 45.500000000000007 4 50.500000000000007 59678.930625000001 50.500000000000007 49.500000000000007 14622.777763228063 5 39341.37000000001 52246.015000000007 48007.810000000005 0.70581670320594814 6 139042.05500000002 65647.015000000014 7 14622.777763228063 25297.285000000007 48217.290000000008 22666.205000000005 0.98182534576205305 40249.090000000004 48.500000000000007 12343.766573357863 63243.485000000008 70976.930000000008 48.500000000000007 55442.960000000014 45.500000000000007
decision_type=2 2 2 2 2 2 2 2 2 2 2 1 2 2 2 2 2 2 2 9 9 2 2 2 2 2 2 2 2 2 2 2 1 2 9 2 2 2 2 2 9 2 2 2 2 9 2 2 9 2 2 2 2 2 2 2 2 2 2 2 2 2
left_child=2 3 5 8 15 10 17 13 16 33 -1 -9 20 58 -7 25 18 23 50 24 -5 30 31 44 -20 -3 -18 28 -27 -15 -17 42 -33 40 35 -35 -24 38 51 -23 -8 43 -14 -40 -4 -46 -13 -21 -19 -39 -2 -10 -53 54 55 57 -55 -22 -6 -60 -57 -16
right_child=1 4 6 12 7 14 9 11 37 -11 -12 46 22 29 61 21 26 48 19 47 53 39 36 -25 -26 27 -28 -29 -30 -31 -32 32 -34 34 -36 -37 -38 49 41 -41 -42 -43 -44 -45 45 -47 -48 -49 -50 -51 -52 52 -54 56 -56 60 -58 -59 59 -61 -62 -63
leaf_value=-348.71939372159733 75.808395567705048 1470.1262017667314 -30.574834905543398 159.29909301757812 1328.851860868014 -191.14884854558306 -150.68892510714304 2156.4642496744796 663.66053576078707 364.67667610890862 -268.89159460729616 382.90810812297622 410.16923055795525 1458.9239730031868 -115.50515757822782 669.29064784905859 403.7265344706845 224.41144085523879 1022.3477644348145 576.85915523094161 760.98988716194231 1593.6848355679899 185.79427260928685 -227.51143578718157 1951.4090212790384 660.26965900504081 -79.655046097882149 346.36869750151766 1609.4513302565831 2602.8654002850208 1775.3011107891039 2408.2898655482704 1265.2942514999138 863.59386344126858 250.75072878944721 -244.45155847109282 1023.5024800890968 598.70849894034768 2170.7271034240725 536.48680283041563 185.58026267555229 931.28940027909323 1184.2422929012785 616.97653692336314 414.07900539545074 16.337147558578785 1331.6379127218918 1366.3535054524741 69.521814568820773 -3.354281892638276 492.90730438136961 2037.1202514648439 784.9548686124815 878.60659679645892 953.81110851380788 1481.4014270019534 140.76264707440916 1629.4880004731735 2109.8460478790712 2757.1539149305554 3156.0970073084682 -4.9644524000881205
leaf_weight=81262 212 3033 11983 120 52 33422 349 168 6041 12170 43385 95 65 38 23833 39 438 1631 100 1728 111 74 90 1188 151 115 429 74 197 1757 2075 91 362 307 1451 65 168 357 64 68 12876 139 3741 21 576 2287 74 60 19006 138 7786 28 3029 311 5869 20 115 101 1065 90 31 3145
leaf_count=81262 212 3033 11983 120 52 33422 349 168 6041 12170 43385 95 65 38 23833 39 438 1631 100 1728 111 74 90 1188 151 115 429 74 197 1757 2075 91 362 307 1451 65 168 357 64 68 12876 139 3741 21 576 2287 74 60 19006 138 7786 28 3029 311 5869 20 115 101 1065 90 31 3145
internal_value=0.048822 988.27 -162.434 752.538 1822.93 -265.665 136.562 2303.12 598.941 271.548 -320.934 1475.38 1036.83 2396.04 -151.606 1540.4 501.852 36.3721 530.989 723.733 941.087 1712.88 1178.39 -22.2331 1520.68 1426.59 164.545 1084.52 1259.59 2578.65 1754.9 1205.47 1494.9 196.23 337.675 652.445 731.279 706.779 721.43 1087.42 176.733 1255.95 1171.02 1786.86 -5.80638 97.8612 798.328 599.997 81.9056 430.861 481.851 708.27 796.424 953.695 974.304 1431.62 679.423 1174.76 2124.47 2160.29 2499.35 -102.619
internal_weight=289866 40930 248936 31916 9014 185047 63889 3339 20721 27218 124647 337 11195 3002 60400 5675 10904 36671 10037 2039 6678 2256 4517 16034 251 3419 867 386 312 1795 2114 4259 453 15048 1823 372 258 9817 9322 142 13225 224 3806 85 14846 2863 169 1788 20637 495 7998 9098 3057 6558 6132 263 426 212 1207 1155 51 26978
internal_count=289866 40930 248936 31916 9014 185047 63889 3339 20721 27218 124647 337 11195 3002 60400 5675 10904 36671 10037 2039 6678 2256 4517 16034 251 3419 867 386 312 1795 2114 4259 453 15048 1823 372 258 9817 9322 142 13225 224 3806 85 14846 2863 169 1788 20637 495 7998 9098 3057 6558 6132 263 426 212 1207 1155 51 26978
cat_boundaries=0 1 4 7 8 11 13 16 18
cat_threshold=1 1 41943040 2 2097409 0 2 2 16672 8422400 34 2097408 4292608 16777473 12616704 2 2097409 8388608
is_linear=0
shrinkage=0.05


Tree=16
num_leaves=63
num_cat=12
split_feature=14 17 14 17 14 14 17 1 17 17 9 17 18 8 14 14 17 10 1 14 20 1 17 9 14 8 9 8 10 20 16 19 8 19 10 19 14 8 18 1 16 1 8 8 18 1 17 8 1 8 8 18 8 8 8 20 1 8 8 8 1 6
split_gain=1.68074e+13 3.42019e+12 2.20753e+12 6.13949e+11 5.09623e+11 3.06785e+11 2.6781e+11 1.0062e+11 9.23214e+10 7.90838e+10 6.83734e+10 6.73168e+10 6.33315e+10 5.50808e+10 5.093e+10 4.19619e+10 3.76503e+10 3.65304e+10 7.85787e+10 3.62057e+10 2.85634e+10 2.75171e+10 2.7109e+10 2.67814e+10 2.54483e+10 2.31527e+10 3.19465e+10 2.20157e+10 3.01316e+10 8.93567e+10 2.17446e+10 2.17262e+10 2.04106e+10 1.97498e+10 1.95524e+10 1.83395e+10 1.70496e+10 1.69349e+10 1.66413e+10 1.65589e+10 3.25873e+10 1.64841e+10 3.55305e+10 3.27333e+10 1.65288e+10 1.53792e+10 1.47193e+10 1.45155e+10 1.50972e+10 1.43116e+10 1.40348e+10 1.38755e+10 1.36994e+10 1.37348e+10 1.31763e+10 2.57715e+10 1.29266e+10 1.31441e+10 1.2739e+10 3.45453e+10 4.9631e+10 1.23771e+10
threshold=30304.025000000005 67146.621249999967 11440.960000000001 101282.21999999993 45840.770000000011 4487.2450000000008 19335.154999999959 0 53232.242499999913 80354.623749999999 -0.17992617227144048 36910.526249999966 111046.80625000001 50.500000000000007 24002.810000000005 7826.9900000000007 15241.363749999991 0.70581670320594814 1 1685.4200000000003 2 3 22281.626249999954 -0.23931566428755757 93835.595000000016 48.500000000000007 -0.61559370248597534 50.500000000000007 0.70581670320594814 4 30649.550000000003 16114.594726166522 50.500000000000007 16114.594726166522 0.78574730703237883 29068.741992438256 45840.770000000011 49.500000000000007 135247.49562500001 5 31255.320000000003 6 45.500000000000007 50.500000000000007 26684.222142857128 7 92223.37749999993 42.500000000000007 8 46.500000000000007 49.500000000000007 57681.839999999997 50.500000000000007 49.500000000000007 42.500000000000007 9 10 50.500000000000007 50.500000000000007 45.500000000000007 11 7.4770000000000012
decision_type=2 2 2 2 2 2 2 9 2 2 2 2 2 2 2 2 2 2 9 2 1 9 2 2 2 2 2 2 2 1 2 2 2 2 2 2 2 2 2 9 2 9 2 2 2 9 2 2 9 2 2 2 2 2 2 1 9 2 2 2 9 2
left_child=2 4 5 9 11 19 16 10 13 21 -5 22 -9 17 47 -7 32 39 25 -1 46 -3 -2 50 -14 26 -19 28 51 34 -15 -29 37 -25 -30 -20 -23 -4 -26 40 -6 42 -24 49 -43 -13 -11 48 -8 -44 -22 -10 53 -38 -47 -56 57 -49 59 -16 -61 -36
right_child=1 3 6 7 8 15 14 12 27 20 -12 45 24 30 58 -17 -18 18 35 -21 23 36 41 33 38 -27 -28 31 29 -31 -32 -33 -34 -35 61 -37 52 -39 -40 -41 -42 44 43 -45 -46 54 -48 56 -50 -51 -52 -53 -54 -55 55 -57 -58 -59 -60 60 -62 -63
leaf_value=-340.03078644012913 -6.1442530527502512 296.35409503589977 -49.460156830788343 2922.5576697716351 -295.03649466185442 -213.57185772999961 -110.23526795462527 1936.1161291084497 847.32557544498127 1545.119877659763 38.361187066837232 -30.035381407249634 1252.5788013864071 -71.75014607952015 243.80216665677304 -132.64268776023022 43.335264695295706 3147.8659224898729 770.14758817263305 -281.54386368261873 1522.0656524735659 162.41539590018135 449.99792415345922 1407.5014501111261 2281.7491042998713 2634.8789279513894 1275.6904806685775 863.20474947262437 3432.0910242388327 1049.8058711202166 515.50528220603223 111.2272899545942 -243.48647350669796 698.13214630126959 1302.4301098108292 2088.520044849537 1276.2362825033777 243.88202971476946 2565.6346287732686 716.65231408591626 1248.8458191540776 171.09645491725468 1965.227963441791 56.416667102632076 392.34406181654026 540.31681995926226 1787.8018893714716 612.8287708766062 118.50503203608885 1082.5885157503042 2622.1027042164524 1004.3544438355825 881.86763589647092 1875.1230086346063 1200.5217037253667 620.06939974056274 183.84583888785664 -261.07426172373249 29.579582925322196 1148.1964035871918 354.58661785051157 2355.9474752011506
leaf_weight=62961 429 100 20679 26 113 36617 763 1106 2360 1818 98 117 47 261 11264 28471 17475 27 1146 45643 197 35 1628 174 994 72 146 306 31 1130 398 140 1343 225 40 27 4143 504 1074 5073 49 939 66 63 8358 8073 952 353 11806 151 34 3483 216 98 217 1610 2199 49 567 245 1045 92
leaf_count=62961 429 100 20679 26 113 36617 763 1106 2360 1818 98 117 47 261 11264 28471 17475 27 1146 45643 197 35 1628 174 994 72 146 306 31 1130 398 140 1343 225 40 27 4143 504 1074 5073 49 939 66 63 8358 8073 952 353 11806 151 34 3483 216 98 217 1610 2199 49 567 245 1045 92
internal_value=0.0483974 855.96 -169.313 1614.67 620.594 -264.008 71.5303 2183.41 845.714 1376.62 595.119 465.731 2235.77 718.952 189.266 -178.172 -11.7394 762.142 987.259 -315.45 1559.41 1241.28 383.923 1255.53 2403.04 1807.66 1567.88 967.962 989.262 1207.67 282.92 627.158 -54.4647 1007.48 2302.08 793.727 1258.86 -42.4808 2429.18 701.165 161.944 398.857 536.667 1059.75 369.6 560.746 1628.53 126.875 104.626 1351.04 1683.98 940.93 1270.29 1290.08 567.185 689.012 234.391 494.019 261.401 271.871 516.96 2036.7
